{"learner":{"attributes":{},"feature_names":["log_return","vol_20d","vol_60d","z_vol","mom_1m","mom_3m","mom_6m","mom_12m","mean_rev_20d","mean_rev_60d","volume_z","mom_1m_rank_pct","mom_3m_rank_pct","rsi_14","macd","macd_signal","macd_hist","bb_middle","bb_upper","bb_lower","bb_pct","bb_width","atr_14","mom_12_1","mom_1w","mom_12_1_rank","mom_6m_rank","mom_3m_rank","mom_decile","price_zscore_20d","price_zscore_50d","price_zscore_200d","rsi_mean_rev","bb_mean_rev","vol_trend","vol_rank","atr_pct","daily_range","close_position","gap_pct","volume_ratio","volume_trend","volume_std","mom_12_1_rank_z","mom_6m_rank_z","mom_3m_rank_z","alpha_momentum","price_zscore_50d_z","rsi_mean_rev_z","bb_mean_rev_z","alpha_mean_reversion","alpha_combined"],"feature_types":[],"gradient_booster":{"model":{"cats":{"enc":[],"feature_segments":[],"sorted_idx":[]},"gbtree_model_param":{"num_parallel_tree":"1","num_trees":"450"},"iteration_indptr":[0,3,6,9,12,15,18,21,24,27,30,33,36,39,42,45,48,51,54,57,60,63,66,69,72,75,78,81,84,87,90,93,96,99,102,105,108,111,114,117,120,123,126,129,132,135,138,141,144,147,150,153,156,159,162,165,168,171,174,177,180,183,186,189,192,195,198,201,204,207,210,213,216,219,222,225,228,231,234,237,240,243,246,249,252,255,258,261,264,267,270,273,276,279,282,285,288,291,294,297,300,303,306,309,312,315,318,321,324,327,330,333,336,339,342,345,348,351,354,357,360,363,366,369,372,375,378,381,384,387,390,393,396,399,402,405,408,411,414,417,420,423,426,429,432,435,438,441,444,447,450],"tree_info":[0,1,2,0,1,2,0,1,2,0,1,2,0,1,2,0,1,2,0,1,2,0,1,2,0,1,2,0,1,2,0,1,2,0,1,2,0,1,2,0,1,2,0,1,2,0,1,2,0,1,2,0,1,2,0,1,2,0,1,2,0,1,2,0,1,2,0,1,2,0,1,2,0,1,2,0,1,2,0,1,2,0,1,2,0,1,2,0,1,2,0,1,2,0,1,2,0,1,2,0,1,2,0,1,2,0,1,2,0,1,2,0,1,2,0,1,2,0,1,2,0,1,2,0,1,2,0,1,2,0,1,2,0,1,2,0,1,2,0,1,2,0,1,2,0,1,2,0,1,2,0,1,2,0,1,2,0,1,2,0,1,2,0,1,2,0,1,2,0,1,2,0,1,2,0,1,2,0,1,2,0,1,2,0,1,2,0,1,2,0,1,2,0,1,2,0,1,2,0,1,2,0,1,2,0,1,2,0,1,2,0,1,2,0,1,2,0,1,2,0,1,2,0,1,2,0,1,2,0,1,2,0,1,2,0,1,2,0,1,2,0,1,2,0,1,2,0,1,2,0,1,2,0,1,2,0,1,2,0,1,2,0,1,2,0,1,2,0,1,2,0,1,2,0,1,2,0,1,2,0,1,2,0,1,2,0,1,2,0,1,2,0,1,2,0,1,2,0,1,2,0,1,2,0,1,2,0,1,2,0,1,2,0,1,2,0,1,2,0,1,2,0,1,2,0,1,2,0,1,2,0,1,2,0,1,2,0,1,2,0,1,2,0,1,2,0,1,2,0,1,2,0,1,2,0,1,2,0,1,2,0,1,2,0,1,2,0,1,2,0,1,2,0,1,2,0,1,2,0,1,2,0,1,2,0,1,2,0,1,2,0,1,2,0,1,2,0,1,2,0,1,2,0,1,2,0,1,2,0,1,2,0,1,2,0,1,2,0,1,2,0,1,2,0,1,2,0,1,2,0,1,2,0,1,2,0,1,2,0,1,2,0,1,2,0,1,2,0,1,2],"trees":[{"base_weights":[-2.7037704E-1,-1.3804068E-1,-5.409765E-1,9.313207E-2,-3.7812448E-1,9.2315817E-1,-6.030464E-1,-6.765272E-4,7.917206E-3,8.639415E-3,-4.1504893E-3,-4.0393276E-3,1.6003476E-2,1.5881049E-2,-6.1383825E-3],"categories":[],"categories_nodes":[],"categories_segments":[],"categories_sizes":[],"default_left":[0,0,0,0,0,0,0,0,0,0,0,0,0,0,0],"id":0,"left_children":[1,3,5,7,9,11,13,-1,-1,-1,-1,-1,-1,-1,-1],"loss_changes":[1.5349503E2,1.5995135E2,1.2852396E2,1.6502245E2,6.519086E1,5.2467007E1,3.2931946E1,0E0,0E0,0E0,0E0,0E0,0E0,0E0,0E0],"parents":[2147483647,0,0,1,1,2,2,3,3,4,4,5,5,6,6],"right_children":[2,4,6,8,10,12,14,-1,-1,-1,-1,-1,-1,-1,-1],"split_conditions":[5.364678E3,7.999133E-2,-5.938304E-2,5.1918025E0,1.0488816E-2,1.1326736E-2,-6.2555856E-1,-6.765272E-4,7.917206E-3,8.639415E-3,-4.1504893E-3,-4.0393276E-3,1.6003476E-2,1.5881049E-2,-6.1383825E-3],"split_indices":[17,21,7,15,2,1,34,0,0,0,0,0,0,0,0],"split_type":[0,0,0,0,0,0,0,0,0,0,0,0,0,0,0],"sum_hessian":[4.28744E3,2.8803286E3,1.4071113E3,1.4677084E3,1.4126201E3,5.66622E1,1.3504491E3,1.1938411E3,2.738673E2,4.0135727E1,1.3724845E3,1.9280888E1,3.7381313E1,5.9023128E0,1.3445469E3],"tree_param":{"num_deleted":"0","num_feature":"52","num_nodes":"15","size_leaf_vector":"1"}},{"base_weights":[5.305146E-1,1.3888721E-1,5.996078E-1,8.726528E-1,-8.105787E-2,2.792568E-1,6.653293E-1,-8.280646E-3,9.326165E-3,9.5551176E-4,-5.841669E-3,8.728995E-3,1.3699329E-3,3.2585491E-3,7.3138154E-3],"categories":[],"categories_nodes":[],"categories_segments":[],"categories_sizes":[],"default_left":[0,0,0,0,0,0,0,0,0,0,0,0,0,0,0],"id":1,"left_children":[1,3,5,7,9,11,13,-1,-1,-1,-1,-1,-1,-1,-1],"loss_changes":[1.480857E2,1.3281186E2,9.7805664E1,2.0125168E1,5.6364742E1,6.6939285E1,8.634375E1,0E0,0E0,0E0,0E0,0E0,0E0,0E0,0E0],"parents":[2147483647,0,0,1,1,2,2,3,3,4,4,5,5,6,6],"right_children":[2,4,6,8,10,12,14,-1,-1,-1,-1,-1,-1,-1,-1],"split_conditions":[7.370331E1,-3.938548E-1,-9.512711E-1,5.4281573E-3,1.2262547E0,8.6876794E2,1.3165375E-2,-8.280646E-3,9.326165E-3,9.5551176E-4,-5.841669E-3,8.728995E-3,1.3699329E-3,3.2585491E-3,7.3138154E-3],"split_indices":[19,47,3,1,47,19,7,0,0,0,0,0,0,0,0],"split_type":[0,0,0,0,0,0,0,0,0,0,0,0,0,0,0],"sum_hessian":[5.4748105E3,8.214962E2,4.653314E3,1.8876935E2,6.3272687E2,7.93031E2,3.8602832E3,5.9926777E0,1.8277667E2,4.6892703E2,1.6379985E2,1.5231389E2,6.407171E2,6.297305E2,3.2305525E3],"tree_param":{"num_deleted":"0","num_feature":"52","num_nodes":"15","size_leaf_vector":"1"}},{"base_weights":[-4.388111E-1,-4.5701164E-1,1.6991625E0,1.9055465E-2,-4.6767437E-1,1.943796E-2,5.1462417E-3,-5.2535604E-3,-2.0532652E-3],"categories":[],"categories_nodes":[],"categories_segments":[],"categories_sizes":[],"default_left":[0,0,0,0,0,0,0,0,0],"id":2,"left_children":[1,3,5,-1,7,-1,-1,-1,-1],"loss_changes":[1.6097955E2,1.0374896E2,9.131561E0,0E0,6.141443E1,0E0,0E0,0E0,0E0],"parents":[2147483647,0,0,1,1,2,2,4,4],"right_children":[2,4,6,-1,8,-1,-1,-1,-1],"split_conditions":[5.7798743E-1,2.6070969E1,1.025872E0,1.9055465E-2,7.443218E-1,1.943796E-2,5.1462417E-3,-5.2535604E-3,-2.0532652E-3],"split_indices":[6,19,20,0,3,0,0,0,0],"split_type":[0,0,0,0,0,0,0,0,0],"sum_hessian":[4.1160303E3,4.082066E3,3.396434E1,1.7542023E1,4.064524E3,2.7619354E1,6.344987E0,3.331118E3,7.334058E2],"tree_param":{"num_deleted":"0","num_feature":"52","num_nodes":"9","size_leaf_vector":"1"}},{"base_weights":[-2.640123E-1,-1.2908466E-1,-5.4201186E-1,1.8650226E-1,-3.5187927E-1,7.713648E-1,-5.9932387E-1,-1.5634125E-3,5.9607546E-3,4.4178052E-4,-4.4186157E-3,-6.384858E-3,1.2252909E-2,1.5586134E-2,-6.093498E-3],"categories":[],"categories_nodes":[],"categories_segments":[],"categories_sizes":[],"default_left":[0,0,0,0,0,0,0,0,0,0,0,0,0,0,0],"id":3,"left_children":[1,3,5,7,9,11,13,-1,-1,-1,-1,-1,-1,-1,-1],"loss_changes":[1.6207474E2,2.0477979E2,1.0675998E2,1.6937167E2,6.085492E1,3.885017E1,3.0237366E1,0E0,0E0,0E0,0E0,0E0,0E0,0E0,0E0],"parents":[2147483647,0,0,1,1,2,2,3,3,4,4,5,5,6,6],"right_children":[2,4,6,8,10,12,14,-1,-1,-1,-1,-1,-1,-1,-1],"split_conditions":[5.550923E3,1.6839648E-2,-5.938304E-2,9.2913695E-2,1.3165375E-2,2.9111417E2,-6.2555856E-1,-1.5634125E-3,5.9607546E-3,4.4178052E-4,-4.4186157E-3,-6.384858E-3,1.2252909E-2,1.5586134E-2,-6.093498E-3],"split_indices":[18,36,7,7,7,22,34,0,0,0,0,0,0,0,0],"split_type":[0,0,0,0,0,0,0,0,0,0,0,0,0,0,0],"sum_hessian":[4.3217266E3,2.9105498E3,1.4111766E3,1.2045195E3,1.7060303E3,5.8483974E1,1.3526927E3,6.5600903E2,5.485105E2,3.159379E2,1.3900923E3,1.4144852E1,4.4339123E1,5.5413346E0,1.3471514E3],"tree_param":{"num_deleted":"0","num_feature":"52","num_nodes":"15","size_leaf_vector":"1"}},{"base_weights":[5.310897E-1,7.983858E-2,6.0179484E-1,-3.7527263E-1,5.675772E-1,2.4884093E-1,6.686441E-1,2.1219887E-3,-5.4977844E-3,8.147692E-3,-9.444305E-3,7.62295E-3,1.2214776E-3,4.519283E-3,7.1916375E-3],"categories":[],"categories_nodes":[],"categories_segments":[],"categories_sizes":[],"default_left":[0,0,0,0,0,0,0,0,0,0,0,0,0,0,0],"id":4,"left_children":[1,3,5,7,9,11,13,-1,-1,-1,-1,-1,-1,-1,-1],"loss_changes":[1.7472766E2,1.6518384E2,1.1157031E2,3.9591766E1,1.349989E2,4.9065945E1,4.3260254E1,0E0,0E0,0E0,0E0,0E0,0E0,0E0,0E0],"parents":[2147483647,0,0,1,1,2,2,3,3,4,4,5,5,6,6],"right_children":[2,4,6,8,10,12,14,-1,-1,-1,-1,-1,-1,-1,-1],"split_conditions":[7.462177E1,1.859986E-2,-9.512711E-1,-1.3833833E-1,2.1177427E-1,9.652132E2,5.3688505E6,2.1219887E-3,-5.4977844E-3,8.147692E-3,-9.444305E-3,7.62295E-3,1.2214776E-3,4.519283E-3,7.1916375E-3],"split_indices":[18,2,3,34,21,18,42,0,0,0,0,0,0,0,0],"split_type":[0,0,0,0,0,0,0,0,0,0,0,0,0,0,0],"sum_hessian":[5.476867E3,7.421945E2,4.7346724E3,3.840584E2,3.5813614E2,7.546988E2,3.9799739E3,8.790646E1,2.9615195E2,3.0820938E2,4.9926785E1,1.4837143E2,6.0632733E2,7.542768E2,3.225697E3],"tree_param":{"num_deleted":"0","num_feature":"52","num_nodes":"15","size_leaf_vector":"1"}},{"base_weights":[-4.3743396E-1,-4.679843E-1,9.804201E-1,-4.9167472E-1,5.144436E-2,-2.7114698E-1,1.5247467E0,-4.9694693E-3,1.2568769E-2,3.9202124E-3,-6.528554E-3,-6.25191E-3,2.9628652E-3,1.718044E-2,2.692177E-3],"categories":[],"categories_nodes":[],"categories_segments":[],"categories_sizes":[],"default_left":[0,0,0,0,0,0,0,0,0,0,0,0,0,0,0],"id":5,"left_children":[1,3,5,7,9,11,13,-1,-1,-1,-1,-1,-1,-1,-1],"loss_changes":[1.7763171E2,4.9304382E1,5.9408173E1,3.593335E1,4.2373196E1,5.628714E0,1.4220306E1,0E0,0E0,0E0,0E0,0E0,0E0,0E0,0E0],"parents":[2147483647,0,0,1,1,2,2,3,3,4,4,5,5,6,6],"right_children":[2,4,6,8,10,12,14,-1,-1,-1,-1,-1,-1,-1,-1],"split_conditions":[2.8588033E-1,5.321651E2,7.8837335E-1,8.04429E1,2.5607482E-2,-2.6741531E-1,3.124827E-1,-4.9694693E-3,1.2568769E-2,3.9202124E-3,-6.528554E-3,-6.25191E-3,2.9628652E-3,1.718044E-2,2.692177E-3],"split_indices":[5,22,47,13,36,10,34,0,0,0,0,0,0,0,0],"split_type":[0,0,0,0,0,0,0,0,0,0,0,0,0,0,0],"sum_hessian":[4.0892483E3,4.0036519E3,8.559634E1,3.829067E3,1.74585E2,2.6095943E1,5.950039E1,3.8182698E3,1.0797084E1,1.17978004E2,5.6607006E1,1.6006853E1,1.0089089E1,5.124283E1,8.257562E0],"tree_param":{"num_deleted":"0","num_feature":"52","num_nodes":"15","size_leaf_vector":"1"}},{"base_weights":[-2.667713E-1,7.524268E-2,-3.961452E-1,-2.260887E-1,4.6283886E-1,4.0201508E-2,-4.7812536E-1,-3.06247E-3,7.1187303E-3,6.4468705E-3,-3.8024955E-3,8.659102E-3,-2.4853963E-3,-7.4888585E-4,-5.3830114E-3],"categories":[],"categories_nodes":[],"categories_segments":[],"categories_sizes":[],"default_left":[0,0,0,0,0,0,0,0,0,0,0,0,0,0,0],"id":6,"left_children":[1,3,5,7,9,11,13,-1,-1,-1,-1,-1,-1,-1,-1],"loss_changes":[1.8817368E2,1.365015E2,1.1038333E2,4.9667747E1,7.860839E1,1.1677486E2,6.2984375E1,0E0,0E0,0E0,0E0,0E0,0E0,0E0,0E0],"parents":[2147483647,0,0,1,1,2,2,3,3,4,4,5,5,6,6],"right_children":[2,4,6,8,10,12,14,-1,-1,-1,-1,-1,-1,-1,-1],"split_conditions":[-7.3636025E-1,-1.672253E-1,2.771173E-2,1.7119954E0,2.744178E-1,6.746377E-2,7.5365685E1,-3.06247E-3,7.1187303E-3,6.4468705E-3,-3.8024955E-3,8.659102E-3,-2.4853963E-3,-7.4888585E-4,-5.3830114E-3],"split_indices":[3,34,7,50,7,21,18,0,0,0,0,0,0,0,0],"split_type":[0,0,0,0,0,0,0,0,0,0,0,0,0,0,0],"sum_hessian":[4.2510615E3,1.1668324E3,3.0842292E3,6.5670374E2,5.101287E2,4.8789172E2,2.5963374E3,6.056208E2,5.1082916E1,4.1981326E2,9.031543E1,1.25889244E2,3.620025E2,3.3743533E2,2.258902E3],"tree_param":{"num_deleted":"0","num_feature":"52","num_nodes":"15","size_leaf_vector":"1"}},{"base_weights":[5.154195E-1,1.0725146E-1,5.8896077E-1,8.6063254E-1,-1.1453584E-1,2.7172697E-1,6.530304E-1,-8.746529E-3,9.564836E-3,4.2940344E-4,-6.2679257E-3,8.968214E-3,1.3385018E-3,3.421661E-3,7.122443E-3],"categories":[],"categories_nodes":[],"categories_segments":[],"categories_sizes":[],"default_left":[0,0,0,0,0,0,0,0,0,0,0,0,0,0,0],"id":7,"left_children":[1,3,5,7,9,11,13,-1,-1,-1,-1,-1,-1,-1,-1],"loss_changes":[1.6419458E2,1.3989236E2,9.4059204E1,3.250522E1,5.2238495E1,6.7171524E1,7.074866E1,0E0,0E0,0E0,0E0,0E0,0E0,0E0,0E0],"parents":[2147483647,0,0,1,1,2,2,3,3,4,4,5,5,6,6],"right_children":[2,4,6,8,10,12,14,-1,-1,-1,-1,-1,-1,-1,-1],"split_conditions":[7.370331E1,-3.938548E-1,-9.512711E-1,5.439549E-1,1.3513873E0,8.6876794E2,1.3165375E-2,-8.746529E-3,9.564836E-3,4.2940344E-4,-6.2679257E-3,8.968214E-3,1.3385018E-3,3.421661E-3,7.122443E-3],"split_indices":[19,47,3,22,48,19,7,0,0,0,0,0,0,0,0],"split_type":[0,0,0,0,0,0,0,0,0,0,0,0,0,0,0],"sum_hessian":[5.471117E3,8.356359E2,4.635481E3,1.8939763E2,6.462383E2,7.7977136E2,3.8557097E3,9.488728E0,1.799089E2,4.949872E2,1.5125105E2,1.3991803E2,6.3985333E2,6.1801294E2,3.2376968E3],"tree_param":{"num_deleted":"0","num_feature":"52","num_nodes":"15","size_leaf_vector":"1"}},{"base_weights":[-4.3754208E-1,-4.564528E-1,1.6754192E0,-4.7506464E-1,2.1372408E-1,8.037344E-3,1.8796291E-2,3.3293308E-3,-4.886133E-3,-3.4603362E-3,1.02349995E-2],"categories":[],"categories_nodes":[],"categories_segments":[],"categories_sizes":[],"default_left":[0,0,0,0,0,0,0,0,0,0,0],"id":8,"left_children":[1,3,5,7,9,-1,-1,-1,-1,-1,-1],"loss_changes":[1.6226233E2,5.0077515E1,4.9093018E0,4.2843018E1,4.9740673E1,0E0,0E0,0E0,0E0,0E0,0E0],"parents":[2147483647,0,0,1,1,2,2,3,3,4,4],"right_children":[2,4,6,8,10,-1,-1,-1,-1,-1,-1],"split_conditions":[3.840142E-1,2.579933E0,2.3974035E-2,-3.1066592E2,2.7774101E-1,8.037344E-3,1.8796291E-2,3.3293308E-3,-4.886133E-3,-3.4603362E-3,1.02349995E-2],"split_indices":[5,31,2,14,6,0,0,0,0,0,0],"split_type":[0,0,0,0,0,0,0,0,0,0,0],"sum_hessian":[4.0407234E3,4.0056572E3,3.50661E1,3.8977031E3,1.07954056E2,7.5925574E0,2.7473541E1,6.389105E1,3.8338123E3,6.416953E1,4.3784523E1],"tree_param":{"num_deleted":"0","num_feature":"52","num_nodes":"11","size_leaf_vector":"1"}},{"base_weights":[-2.532436E-1,1.4245906E-1,-3.717937E-1,3.4014493E-1,-2.6737183E-1,9.8512456E-2,-4.6472642E-1,7.843371E-3,9.753999E-4,1.7012237E-2,-3.5845842E-3,-2.505411E-3,7.4985777E-3,-1.7364365E-4,-5.3752214E-3],"categories":[],"categories_nodes":[],"categories_segments":[],"categories_sizes":[],"default_left":[0,0,0,0,0,0,0,0,0,0,0,0,0,0,0],"id":9,"left_children":[1,3,5,7,9,11,13,-1,-1,-1,-1,-1,-1,-1,-1],"loss_changes":[2.0236719E2,8.06987E1,1.4510104E2,7.230008E1,5.876323E1,1.2487381E2,9.024432E1,0E0,0E0,0E0,0E0,0E0,0E0,0E0,0E0],"parents":[2147483647,0,0,1,1,2,2,3,3,4,4,5,5,6,6],"right_children":[2,4,6,8,10,12,14,-1,-1,-1,-1,-1,-1,-1,-1],"split_conditions":[-8.1896675E-1,1.040886E7,3.496247E-2,9.164061E-3,7.431773E1,3.7022382E-2,7.5365685E1,7.843371E-3,9.753999E-4,1.7012237E-2,-3.5845842E-3,-2.505411E-3,7.4985777E-3,-1.7364365E-4,-5.3752214E-3],"split_indices":[3,42,7,2,18,6,18,0,0,0,0,0,0,0,0],"split_type":[0,0,0,0,0,0,0,0,0,0,0,0,0,0,0],"sum_hessian":[4.311762E3,9.939391E2,3.317823E3,6.706261E2,3.2331293E2,5.47421E2,2.770402E3,2.3610394E2,4.345222E2,1.3516328E1,3.097966E2,3.568186E2,1.9060242E2,3.8788922E2,2.3825127E3],"tree_param":{"num_deleted":"0","num_feature":"52","num_nodes":"15","size_leaf_vector":"1"}},{"base_weights":[5.229526E-1,6.840595E-2,5.964983E-1,-3.83648E-1,5.469055E-1,2.8632054E-1,6.556252E-1,3.4794647E-3,-5.2220826E-3,8.343351E-3,-9.399249E-3,8.861075E-3,1.3631206E-3,3.5520333E-3,7.0977076E-3],"categories":[],"categories_nodes":[],"categories_segments":[],"categories_sizes":[],"default_left":[0,0,0,0,0,0,0,0,0,0,0,0,0,0,0],"id":10,"left_children":[1,3,5,7,9,11,13,-1,-1,-1,-1,-1,-1,-1,-1],"loss_changes":[1.8217358E2,1.646515E2,8.585217E1,3.9868114E1,1.5878764E2,6.76187E1,6.383008E1,0E0,0E0,0E0,0E0,0E0,0E0,0E0,0E0],"parents":[2147483647,0,0,1,1,2,2,3,3,4,4,5,5,6,6],"right_children":[2,4,6,8,10,12,14,-1,-1,-1,-1,-1,-1,-1,-1],"split_conditions":[7.405368E1,1.859986E-2,-9.512711E-1,-1.5227096E0,2.1177427E-1,9.019533E2,-1.7259178E-4,3.4794647E-3,-5.2220826E-3,8.343351E-3,-9.399249E-3,8.861075E-3,1.3631206E-3,3.5520333E-3,7.0977076E-3],"split_indices":[17,2,3,3,21,17,7,0,0,0,0,0,0,0,0],"split_type":[0,0,0,0,0,0,0,0,0,0,0,0,0,0,0],"sum_hessian":[5.4496323E3,7.592214E2,4.690411E3,3.905009E2,3.6872052E2,7.5188574E2,3.9385251E3,6.1941303E1,3.2855957E2,3.0935565E2,5.9364853E1,1.4944493E2,6.024408E2,6.02602E2,3.3359233E3],"tree_param":{"num_deleted":"0","num_feature":"52","num_nodes":"15","size_leaf_vector":"1"}},{"base_weights":[-4.3147433E-1,-4.7255844E-1,6.874379E-1,-5.2922624E-1,-2.120738E-1,1.2470423E0,8.591065E-2,1.427641E-2,-5.3894687E-3,2.8417984E-3,-4.544395E-3,2.6125385E-4,1.6576553E-2,-6.430658E-3,8.141476E-3],"categories":[],"categories_nodes":[],"categories_segments":[],"categories_sizes":[],"default_left":[0,0,0,0,0,0,0,0,0,0,0,0,0,0,0],"id":11,"left_children":[1,3,5,7,9,11,13,-1,-1,-1,-1,-1,-1,-1,-1],"loss_changes":[1.8629541E2,5.749774E1,4.8261185E1,6.1731506E1,8.420296E1,3.7237503E1,3.785665E1,0E0,0E0,0E0,0E0,0E0,0E0,0E0,0E0],"parents":[2147483647,0,0,1,1,2,2,3,3,4,4,5,5,6,6],"right_children":[2,4,6,8,10,12,14,-1,-1,-1,-1,-1,-1,-1,-1],"split_conditions":[2.579933E0,7.443218E-1,6.9840996E1,-1.3284557E-1,1.3668553E-2,1.0424408E0,2.9895184E2,1.427641E-2,-5.3894687E-3,2.8417984E-3,-4.544395E-3,2.6125385E-4,1.6576553E-2,-6.430658E-3,8.141476E-3],"split_indices":[31,3,17,4,1,14,14,0,0,0,0,0,0,0,0],"split_type":[0,0,0,0,0,0,0,0,0,0,0,0,0,0,0],"sum_hessian":[4.0445186E3,3.9018293E3,1.4268932E2,3.2038152E3,6.9801404E2,7.336463E1,6.932469E1,1.5115144E1,3.1887002E3,2.2898512E2,4.6902893E2,1.8731627E1,5.4633E1,3.47032E1,3.4621487E1],"tree_param":{"num_deleted":"0","num_feature":"52","num_nodes":"15","size_leaf_vector":"1"}},{"base_weights":[-2.5398278E-1,1.056984E-1,-3.880912E-1,-1.8714167E-1,4.9143133E-1,3.878315E-2,-4.7353518E-1,5.8359385E-4,-4.67388E-3,6.88494E-3,-4.0999698E-3,-2.7818643E-3,6.8063745E-3,5.335686E-6,-5.050075E-3],"categories":[],"categories_nodes":[],"categories_segments":[],"categories_sizes":[],"default_left":[0,0,0,0,0,0,0,0,0,0,0,0,0,0,0],"id":12,"left_children":[1,3,5,7,9,11,13,-1,-1,-1,-1,-1,-1,-1,-1],"loss_changes":[2.0578513E2,1.3103415E2,1.1334726E2,4.5413376E1,8.91965E1,1.05805145E2,3.8628357E1,0E0,0E0,0E0,0E0,0E0,0E0,0E0,0E0],"parents":[2147483647,0,0,1,1,2,2,3,3,4,4,5,5,6,6],"right_children":[2,4,6,8,10,12,14,-1,-1,-1,-1,-1,-1,-1,-1],"split_conditions":[-7.3636025E-1,-1.672253E-1,3.496247E-2,9.482608E6,2.744178E-1,3.7022382E-2,2.9750015E2,5.8359385E-4,-4.67388E-3,6.88494E-3,-4.0999698E-3,-2.7818643E-3,6.8063745E-3,5.335686E-6,-5.050075E-3],"split_indices":[3,34,23,42,23,6,42,0,0,0,0,0,0,0,0],"split_type":[0,0,0,0,0,0,0,0,0,0,0,0,0,0,0],"sum_hessian":[4.26434E3,1.1582104E3,3.1061294E3,6.586742E2,4.995363E2,5.181284E2,2.588001E3,3.5152417E2,3.0715E2,4.101163E2,8.9419975E1,3.4722397E2,1.7090448E2,1.611764E2,2.4268245E3],"tree_param":{"num_deleted":"0","num_feature":"52","num_nodes":"15","size_leaf_vector":"1"}},{"base_weights":[5.276125E-1,2.4205677E-1,6.03705E-1,5.05839E-1,-3.782978E-2,6.228163E-1,-4.120091E-1,9.6906524E-4,6.656949E-3,7.2356234E-3,-1.3314593E-3,7.651492E-3,5.2779242E-3,-7.110562E-3,7.896389E-3],"categories":[],"categories_nodes":[],"categories_segments":[],"categories_sizes":[],"default_left":[0,0,0,0,0,0,0,0,0,0,0,0,0,0,0],"id":13,"left_children":[1,3,5,7,9,11,13,-1,-1,-1,-1,-1,-1,-1,-1],"loss_changes":[1.1866284E2,8.508001E1,8.405115E1,3.8713104E1,4.0732307E1,5.6907227E1,2.9425743E1,0E0,0E0,0E0,0E0,0E0,0E0,0E0,0E0],"parents":[2147483647,0,0,1,1,2,2,3,3,4,4,5,5,6,6],"right_children":[2,4,6,8,10,12,14,-1,-1,-1,-1,-1,-1,-1,-1],"split_conditions":[-8.570638E-1,-1.9750915E-1,1.7931506E-1,-1.5959654E0,-3.873074E-2,-4.0959716E-2,3.317365E-1,9.6906524E-4,6.656949E-3,7.2356234E-3,-1.3314593E-3,7.651492E-3,5.2779242E-3,-7.110562E-3,7.896389E-3],"split_indices":[3,34,4,3,4,34,34,0,0,0,0,0,0,0,0],"split_type":[0,0,0,0,0,0,0,0,0,0,0,0,0,0,0],"sum_hessian":[5.466855E3,1.1511322E3,4.315723E3,5.921997E2,5.5893256E2,4.2363994E3,7.932368E1,1.6688698E2,4.253127E2,6.1452717E1,4.9747983E2,1.6931848E3,2.5432144E3,6.3843567E1,1.5480112E1],"tree_param":{"num_deleted":"0","num_feature":"52","num_nodes":"15","size_leaf_vector":"1"}},{"base_weights":[-4.2813018E-1,-4.4808632E-1,1.6625408E0,1.7991869E-2,-4.552121E-1,1.8308606E-2,5.309257E-3,-4.842746E-3,-6.1298534E-4],"categories":[],"categories_nodes":[],"categories_segments":[],"categories_sizes":[],"default_left":[0,0,0,0,0,0,0,0,0],"id":14,"left_children":[1,3,5,-1,7,-1,-1,-1,-1],"loss_changes":[1.687873E2,6.471936E1,6.3219986E0,0E0,4.551764E1,0E0,0E0,0E0,0E0],"parents":[2147483647,0,0,1,1,2,2,4,4],"right_children":[2,4,6,-1,8,-1,-1,-1,-1],"split_conditions":[3.840142E-1,2.6070969E1,2.4558721E-1,1.7991869E-2,8.8139194E8,1.8308606E-2,5.309257E-3,-4.842746E-3,-6.1298534E-4],"split_indices":[5,19,34,0,42,0,0,0,0],"split_type":[0,0,0,0,0,0,0,0,0],"sum_hessian":[4.0266929E3,3.9893984E3,3.729444E1,1.1814869E1,3.9775835E3,3.1927528E1,5.3669147E0,3.7040715E3,2.735121E2],"tree_param":{"num_deleted":"0","num_feature":"52","num_nodes":"9","size_leaf_vector":"1"}},{"base_weights":[-2.595627E-1,1.22757696E-1,-3.7294406E-1,-1.7250614E-1,4.3081164E-1,6.429843E-2,-4.5904294E-1,-3.1487097E-3,5.22309E-3,6.1052707E-3,-4.656397E-3,8.216694E-3,-2.085618E-3,-7.460983E-4,-5.2960585E-3],"categories":[],"categories_nodes":[],"categories_segments":[],"categories_sizes":[],"default_left":[0,0,0,0,0,0,0,0,0,0,0,0,0,0,0],"id":15,"left_children":[1,3,5,7,9,11,13,-1,-1,-1,-1,-1,-1,-1,-1],"loss_changes":[1.866192E2,8.968724E1,1.2500928E2,4.999577E1,7.801046E1,1.1322337E2,7.5204834E1,0E0,0E0,0E0,0E0,0E0,0E0,0E0,0E0],"parents":[2147483647,0,0,1,1,2,2,3,3,4,4,5,5,6,6],"right_children":[2,4,6,8,10,12,14,-1,-1,-1,-1,-1,-1,-1,-1],"split_conditions":[-8.1896675E-1,-1.9458383E-1,3.496247E-2,7.360655E-1,2.744178E-1,6.746377E-2,7.37502E1,-3.1487097E-3,5.22309E-3,6.1052707E-3,-4.656397E-3,8.216694E-3,-2.085618E-3,-7.460983E-4,-5.2960585E-3],"split_indices":[3,34,23,43,23,21,19,0,0,0,0,0,0,0,0],"split_type":[0,0,0,0,0,0,0,0,0,0,0,0,0,0,0],"sum_hessian":[4.303083E3,9.842209E2,3.318862E3,5.0276764E2,4.8145322E2,5.460529E2,2.772809E3,4.1772443E2,8.504323E1,4.0131818E2,8.0135025E1,1.4409125E2,4.0196164E2,4.3033926E2,2.3424697E3],"tree_param":{"num_deleted":"0","num_feature":"52","num_nodes":"15","size_leaf_vector":"1"}},{"base_weights":[5.0905913E-1,1.0496769E-1,5.783702E-1,8.485753E-1,-1.1782304E-1,2.8589654E-1,6.3742906E-1,-2.5612207E-3,9.138821E-3,5.15902E-4,-5.8741155E-3,8.575939E-3,1.6120329E-3,3.5179793E-3,6.923876E-3],"categories":[],"categories_nodes":[],"categories_segments":[],"categories_sizes":[],"default_left":[0,0,0,0,0,0,0,0,0,0,0,0,0,0,0],"id":16,"left_children":[1,3,5,7,9,11,13,-1,-1,-1,-1,-1,-1,-1,-1],"loss_changes":[1.5144385E2,1.3150916E2,7.957007E1,1.3435364E1,4.8655518E1,5.528775E1,6.00459E1,0E0,0E0,0E0,0E0,0E0,0E0,0E0,0E0],"parents":[2147483647,0,0,1,1,2,2,3,3,4,4,5,5,6,6],"right_children":[2,4,6,8,10,12,14,-1,-1,-1,-1,-1,-1,-1,-1],"split_conditions":[7.370331E1,-3.938548E-1,-9.512711E-1,3.029511E-3,1.2262547E0,8.6876794E2,1.3165375E-2,-2.5612207E-3,9.138821E-3,5.15902E-4,-5.8741155E-3,8.575939E-3,1.6120329E-3,3.5179793E-3,6.923876E-3],"split_indices":[19,47,3,37,47,19,7,0,0,0,0,0,0,0,0],"split_type":[0,0,0,0,0,0,0,0,0,0,0,0,0,0,0],"sum_hessian":[5.4083223E3,7.922037E2,4.6161187E3,1.8198485E2,6.102188E2,7.76507E2,3.8396116E3,9.994858E0,1.7198999E2,4.490907E2,1.6112811E2,1.3798618E2,6.385208E2,6.20765E2,3.2188464E3],"tree_param":{"num_deleted":"0","num_feature":"52","num_nodes":"15","size_leaf_vector":"1"}},{"base_weights":[-4.2948943E-1,-4.5887968E-1,9.3493646E-1,8.4845054E-1,-4.7032824E-1,-2.216397E-1,1.6546667E0,-6.117338E-3,1.7186211E-2,-5.304511E-3,-2.0337754E-3,1.1697655E-2,-5.297567E-3,6.6566365E-3,1.792187E-2],"categories":[],"categories_nodes":[],"categories_segments":[],"categories_sizes":[],"default_left":[0,0,0,0,0,0,0,0,0,0,0,0,0,0,0],"id":17,"left_children":[1,3,5,7,9,11,13,-1,-1,-1,-1,-1,-1,-1,-1],"loss_changes":[1.601687E2,5.87724E1,7.0560715E1,4.4524445E1,6.1955505E1,1.4865046E1,5.892624E0,0E0,0E0,0E0,0E0,0E0,0E0,0E0,0E0],"parents":[2147483647,0,0,1,1,2,2,3,3,4,4,5,5,6,6],"right_children":[2,4,6,8,10,12,14,-1,-1,-1,-1,-1,-1,-1,-1],"split_conditions":[2.8588033E-1,-2.1417708E0,1.6148746E-1,5.4142896E3,7.443218E-1,1.6084976E-2,-1.8039589E0,-6.117338E-3,1.7186211E-2,-5.304511E-3,-2.0337754E-3,1.1697655E-2,-5.297567E-3,6.6566365E-3,1.792187E-2],"split_indices":[5,3,21,17,3,2,50,0,0,0,0,0,0,0,0],"split_type":[0,0,0,0,0,0,0,0,0,0,0,0,0,0,0],"sum_hessian":[3.9824514E3,3.8991265E3,8.332493E1,3.3214367E1,3.865912E3,3.2227978E1,5.1096954E1,1.2513374E1,2.0700993E1,3.1544722E3,7.1143994E2,5.335818E0,2.6892159E1,6.9506435E0,4.4146313E1],"tree_param":{"num_deleted":"0","num_feature":"52","num_nodes":"15","size_leaf_vector":"1"}},{"base_weights":[-2.529994E-1,8.960126E-2,-3.8374072E-1,2.2526912E-1,-4.752831E-1,2.2057595E-2,-4.663959E-1,4.8037157E-3,-7.467138E-4,-6.4583845E-3,8.040843E-3,-2.764839E-3,6.1466927E-3,-7.7505474E-4,-5.2903173E-3],"categories":[],"categories_nodes":[],"categories_segments":[],"categories_sizes":[],"default_left":[0,0,0,0,0,0,0,0,0,0,0,0,0,0,0],"id":18,"left_children":[1,3,5,7,9,11,13,-1,-1,-1,-1,-1,-1,-1,-1],"loss_changes":[1.9048914E2,9.017386E1,1.03241425E2,7.259764E1,5.0251606E1,9.2479744E1,6.224292E1,0E0,0E0,0E0,0E0,0E0,0E0,0E0,0E0],"parents":[2147483647,0,0,1,1,2,2,3,3,4,4,5,5,6,6],"right_children":[2,4,6,8,10,12,14,-1,-1,-1,-1,-1,-1,-1,-1],"split_conditions":[-7.3636025E-1,5.550923E3,3.496247E-2,1.4389067E-2,1.1449091E-2,3.7022382E-2,7.5365685E1,4.8037157E-3,-7.467138E-4,-6.4583845E-3,8.040843E-3,-2.764839E-3,6.1466927E-3,-7.7505474E-4,-5.2903173E-3],"split_indices":[3,18,23,36,1,6,18,0,0,0,0,0,0,0,0],"split_type":[0,0,0,0,0,0,0,0,0,0,0,0,0,0,0],"sum_hessian":[4.250975E3,1.1742445E3,3.0767305E3,9.4732684E2,2.2691759E2,5.207626E2,2.555968E3,5.116023E2,4.3572458E2,2.0066206E2,2.6255524E1,3.466588E2,1.7410376E2,3.5487503E2,2.2010928E3],"tree_param":{"num_deleted":"0","num_feature":"52","num_nodes":"15","size_leaf_vector":"1"}},{"base_weights":[5.0450355E-1,5.221576E-2,5.764041E-1,-4.2815328E-1,5.5630493E-1,2.567213E-1,6.414647E-1,4.8644766E-3,-5.458312E-3,7.2611114E-3,-7.484897E-3,8.681343E-3,1.01941E-3,3.4220445E-3,6.9774273E-3],"categories":[],"categories_nodes":[],"categories_segments":[],"categories_sizes":[],"default_left":[0,0,0,0,0,0,0,0,0,0,0,0,0,0,0],"id":19,"left_children":[1,3,5,7,9,11,13,-1,-1,-1,-1,-1,-1,-1,-1],"loss_changes":[1.7791748E2,1.822536E2,9.803308E1,4.1751343E1,8.190404E1,7.562384E1,6.5819214E1,0E0,0E0,0E0,0E0,0E0,0E0,0E0,0E0],"parents":[2147483647,0,0,1,1,2,2,3,3,4,4,5,5,6,6],"right_children":[2,4,6,8,10,12,14,-1,-1,-1,-1,-1,-1,-1,-1],"split_conditions":[7.405368E1,1.859986E-2,-9.512711E-1,-1.5732621E0,1.619826E-1,9.019533E2,1.3165375E-2,4.8644766E-3,-5.458312E-3,7.2611114E-3,-7.484897E-3,8.681343E-3,1.01941E-3,3.4220445E-3,6.9774273E-3],"split_indices":[17,2,3,3,4,17,23,0,0,0,0,0,0,0,0],"split_type":[0,0,0,0,0,0,0,0,0,0,0,0,0,0,0],"sum_hessian":[5.470987E3,7.506674E2,4.7203193E3,3.8445438E2,3.6621304E2,7.990486E2,3.9212705E3,4.3469868E1,3.409845E2,3.2443457E2,4.1778477E1,1.604864E2,6.385622E2,6.2181757E2,3.2994531E3],"tree_param":{"num_deleted":"0","num_feature":"52","num_nodes":"15","size_leaf_vector":"1"}},{"base_weights":[-4.3411157E-1,-4.530833E-1,1.5609381E0,1.777528E-2,-4.623744E-1,1.7757805E-2,5.963916E-3,-5.163896E-3,-2.234689E-3],"categories":[],"categories_nodes":[],"categories_segments":[],"categories_sizes":[],"default_left":[0,0,0,0,0,0,0,0,0],"id":20,"left_children":[1,3,5,-1,7,-1,-1,-1,-1],"loss_changes":[1.5126746E2,8.250177E1,6.752449E0,0E0,5.0542847E1,0E0,0E0,0E0,0E0],"parents":[2147483647,0,0,1,1,2,2,4,4],"right_children":[2,4,6,-1,8,-1,-1,-1,-1],"split_conditions":[5.7798743E-1,2.6070969E1,1.025872E0,1.777528E-2,7.443218E-1,1.7757805E-2,5.963916E-3,-5.163896E-3,-2.234689E-3],"split_indices":[6,19,20,0,3,0,0,0,0],"split_type":[0,0,0,0,0,0,0,0,0],"sum_hessian":[3.976862E3,3.9401663E3,3.6695717E1,1.5554337E1,3.924612E3,2.932323E1,7.372487E0,3.1999575E3,7.246544E2],"tree_param":{"num_deleted":"0","num_feature":"52","num_nodes":"9","size_leaf_vector":"1"}},{"base_weights":[-2.4326813E-1,-1.07867986E-1,-5.2771413E-1,2.144388E-1,-3.242747E-1,7.884062E-1,-5.9977233E-1,-1.4651004E-3,6.5320763E-3,6.24556E-3,-3.693829E-3,-4.4631716E-3,1.237565E-2,-2.5095602E-3,-6.0931826E-3],"categories":[],"categories_nodes":[],"categories_segments":[],"categories_sizes":[],"default_left":[0,0,0,0,0,0,0,0,0,0,0,0,0,0,0],"id":21,"left_children":[1,3,5,7,9,11,13,-1,-1,-1,-1,-1,-1,-1,-1],"loss_changes":[1.635116E2,2.0084943E2,1.3034238E2,1.8332727E2,7.39594E1,4.0213707E1,4.172058E0,0E0,0E0,0E0,0E0,0E0,0E0,0E0,0E0],"parents":[2147483647,0,0,1,1,2,2,3,3,4,4,5,5,6,6],"right_children":[2,4,6,8,10,12,14,-1,-1,-1,-1,-1,-1,-1,-1],"split_conditions":[5.364678E3,1.6625682E-2,-4.2613372E-2,9.2913695E-2,5.090216E-2,1.6625682E-2,-1.27813425E-2,-1.4651004E-3,6.5320763E-3,6.24556E-3,-3.693829E-3,-4.4631716E-3,1.237565E-2,-2.5095602E-3,-6.0931826E-3],"split_indices":[17,36,23,23,21,36,23,0,0,0,0,0,0,0,0],"split_type":[0,0,0,0,0,0,0,0,0,0,0,0,0,0,0],"sum_hessian":[4.245985E3,2.8775916E3,1.3683933E3,1.1559615E3,1.72163E3,7.051514E1,1.2978782E3,6.345891E2,5.213724E2,7.75503E1,1.6440797E3,1.88109E1,5.170424E1,3.529941E1,1.2625787E3],"tree_param":{"num_deleted":"0","num_feature":"52","num_nodes":"15","size_leaf_vector":"1"}},{"base_weights":[5.0358766E-1,8.109782E-2,5.734876E-1,-3.9359108E-1,4.9316677E-1,7.422962E-1,5.025211E-1,1.9361947E-3,-5.118059E-3,2.230502E-3,8.479567E-3,2.1044335E-3,7.864874E-3,-6.119288E-3,5.5565536E-3],"categories":[],"categories_nodes":[],"categories_segments":[],"categories_sizes":[],"default_left":[0,0,0,0,0,0,0,0,0,0,0,0,0,0,0],"id":22,"left_children":[1,3,5,7,9,11,13,-1,-1,-1,-1,-1,-1,-1,-1],"loss_changes":[1.6032361E2,1.512135E2,5.5444458E1,2.5042572E1,3.9461174E1,3.2196655E1,1.9476746E2,0E0,0E0,0E0,0E0,0E0,0E0,0E0,0E0],"parents":[2147483647,0,0,1,1,2,2,3,3,4,4,5,5,6,6],"right_children":[2,4,6,8,10,12,14,-1,-1,-1,-1,-1,-1,-1,-1],"split_conditions":[7.405368E1,2.5038585E-2,9.186254E2,2.4835932E-1,3.54783E-1,-2.3834667E-1,9.9202E2,1.9361947E-3,-5.118059E-3,2.230502E-3,8.479567E-3,2.1044335E-3,7.864874E-3,-6.119288E-3,5.5565536E-3],"split_indices":[17,51,17,22,50,32,17,0,0,0,0,0,0,0,0],"split_type":[0,0,0,0,0,0,0,0,0,0,0,0,0,0,0],"sum_hessian":[5.4293804E3,7.710648E2,4.6583154E3,3.5832822E2,4.127366E2,1.3759268E3,3.282389E3,5.994155E1,2.9838666E2,2.3525543E2,1.7748119E2,1.05996216E2,1.2699305E3,1.4889592E2,3.133493E3],"tree_param":{"num_deleted":"0","num_feature":"52","num_nodes":"15","size_leaf_vector":"1"}},{"base_weights":[-4.2207164E-1,-4.5203567E-1,9.318221E-1,-4.7936696E-1,1.17059864E-1,-6.226512E-3,1.3490932E0,7.6950695E-3,-4.8901383E-3,8.882577E-3,-6.196072E-3,1.5109989E-2,-5.538253E-3],"categories":[],"categories_nodes":[],"categories_segments":[],"categories_sizes":[],"default_left":[0,0,0,0,0,0,0,0,0,0,0,0,0],"id":23,"left_children":[1,3,5,7,9,-1,11,-1,-1,-1,-1,-1,-1],"loss_changes":[1.635445E2,6.1255066E1,5.752495E1,4.5609314E1,1.0343983E2,0E0,2.2160767E1,0E0,0E0,0E0,0E0,0E0,0E0],"parents":[2147483647,0,0,1,1,2,2,3,3,4,4,6,6],"right_children":[2,4,6,8,10,-1,12,-1,-1,-1,-1,-1,-1],"split_conditions":[2.8588033E-1,5.321651E2,2.1445398E0,-1.3284557E-1,1.619764E-2,-6.226512E-3,7.747457E1,7.6950695E-3,-4.8901383E-3,8.882577E-3,-6.196072E-3,1.5109989E-2,-5.538253E-3],"split_indices":[5,22,31,4,2,0,18,0,0,0,0,0,0],"split_type":[0,0,0,0,0,0,0,0,0,0,0,0,0],"sum_hessian":[4.019975E3,3.9335842E3,8.639088E1,3.7534778E3,1.8010641E2,1.8178339E1,6.821254E1,2.8167639E1,3.7253103E3,8.789042E1,9.2215996E1,6.305371E1,5.15883E0],"tree_param":{"num_deleted":"0","num_feature":"52","num_nodes":"13","size_leaf_vector":"1"}},{"base_weights":[-2.4288683E-1,-1.0834133E-1,-5.1475334E-1,2.1762653E-1,-3.2687104E-1,9.533071E-1,-5.8099735E-1,-1.5622901E-3,6.558468E-3,2.1655522E-3,-3.8184081E-3,-4.8087183E-3,1.5345838E-2,1.6556341E-2,-5.940266E-3],"categories":[],"categories_nodes":[],"categories_segments":[],"categories_sizes":[],"default_left":[0,0,0,0,0,0,0,0,0,0,0,0,0,0,0],"id":24,"left_children":[1,3,5,7,9,11,13,-1,-1,-1,-1,-1,-1,-1,-1],"loss_changes":[1.5412521E2,2.010153E2,1.3623407E2,1.8568251E2,5.0541443E1,5.1270184E1,3.9903625E1,0E0,0E0,0E0,0E0,0E0,0E0,0E0,0E0],"parents":[2147483647,0,0,1,1,2,2,3,3,4,4,5,5,6,6],"right_children":[2,4,6,8,10,12,14,-1,-1,-1,-1,-1,-1,-1,-1],"split_conditions":[5.364678E3,1.6625682E-2,-5.938304E-2,9.2913695E-2,6.2085226E-2,1.1326736E-2,-6.2555856E-1,-1.5622901E-3,6.558468E-3,2.1655522E-3,-3.8184081E-3,-4.8087183E-3,1.5345838E-2,1.6556341E-2,-5.940266E-3],"split_indices":[17,36,23,23,21,1,34,0,0,0,0,0,0,0,0],"split_type":[0,0,0,0,0,0,0,0,0,0,0,0,0,0,0],"sum_hessian":[4.214081E3,2.819916E3,1.3941652E3,1.1317523E3,1.6881638E3,5.9615326E1,1.3345498E3,6.1107446E2,5.206778E2,1.5480786E2,1.533356E3,1.7243448E1,4.237188E1,6.9991045E0,1.3275508E3],"tree_param":{"num_deleted":"0","num_feature":"52","num_nodes":"15","size_leaf_vector":"1"}},{"base_weights":[5.0746703E-1,9.057372E-2,5.728604E-1,-3.6374405E-1,5.364714E-1,3.0325317E-1,6.391978E-1,4.1816398E-3,-4.9431226E-3,8.0032945E-3,-9.202974E-3,8.490473E-3,1.610843E-3,6.986938E-3,4.5793685E-3],"categories":[],"categories_nodes":[],"categories_segments":[],"categories_sizes":[],"default_left":[0,0,0,0,0,0,0,0,0,0,0,0,0,0,0],"id":25,"left_children":[1,3,5,7,9,11,13,-1,-1,-1,-1,-1,-1,-1,-1],"loss_changes":[1.4820447E2,1.4981085E2,8.387744E1,3.761526E1,1.4416223E2,7.203546E1,4.035327E1,0E0,0E0,0E0,0E0,0E0,0E0,0E0,0E0],"parents":[2147483647,0,0,1,1,2,2,3,3,4,4,5,5,6,6],"right_children":[2,4,6,8,10,12,14,-1,-1,-1,-1,-1,-1,-1,-1],"split_conditions":[7.405368E1,1.859986E-2,-8.4556735E-1,-1.5732621E0,2.1177427E-1,9.186254E2,6.5960807E-1,4.1816398E-3,-4.9431226E-3,8.0032945E-3,-9.202974E-3,8.490473E-3,1.610843E-3,6.986938E-3,4.5793685E-3],"split_indices":[17,2,3,3,21,17,3,0,0,0,0,0,0,0,0],"split_type":[0,0,0,0,0,0,0,0,0,0,0,0,0,0,0],"sum_hessian":[5.4371914E3,7.3755396E2,4.6996377E3,3.6541895E2,3.72135E2,9.291152E2,3.7705222E3,5.19734E1,3.1344553E2,3.1544965E2,5.6685368E1,1.9097592E2,7.381393E2,2.8365999E3,9.339224E2],"tree_param":{"num_deleted":"0","num_feature":"52","num_nodes":"15","size_leaf_vector":"1"}},{"base_weights":[-4.243148E-1,-4.4386894E-1,1.5700214E0,-5.080036E-1,-1.5927865E-1,1.73032E-2,6.480396E-3,7.6094293E-3,-5.222576E-3,5.4654083E-3,-2.9855226E-3],"categories":[],"categories_nodes":[],"categories_segments":[],"categories_sizes":[],"default_left":[0,0,0,0,0,0,0,0,0,0,0],"id":26,"left_children":[1,3,5,7,9,-1,-1,-1,-1,-1,-1],"loss_changes":[1.53693E2,7.084515E1,4.5411377E0,5.774933E1,7.05594E1,0E0,0E0,0E0,0E0,0E0,0E0],"parents":[2147483647,0,0,1,1,2,2,3,3,4,4],"right_children":[2,4,6,8,10,-1,-1,-1,-1,-1,-1],"split_conditions":[5.7798743E-1,7.443218E-1,2.103488E0,-2.1417708E0,-1.1248194E0,1.73032E-2,6.480396E-3,7.6094293E-3,-5.222576E-3,5.4654083E-3,-2.9855226E-3],"split_indices":[6,3,8,3,9,0,0,0,0,0,0],"split_type":[0,0,0,0,0,0,0,0,0,0,0],"sum_hessian":[3.9222249E3,3.8849114E3,3.73135E1,3.1697896E3,7.151217E2,3.1040037E1,6.2734613E0,3.462869E1,3.135161E3,1.1737207E2,5.9774963E2],"tree_param":{"num_deleted":"0","num_feature":"52","num_nodes":"11","size_leaf_vector":"1"}},{"base_weights":[-2.4967004E-1,-1.2501927E-1,-5.090313E-1,1.0236532E-1,-3.734428E-1,9.492748E-1,-5.743856E-1,-5.3549267E-4,8.9487685E-3,-5.752121E-3,-2.6697214E-3,-3.315911E-3,1.4041885E-2,-2.4928765E-3,-5.932887E-3],"categories":[],"categories_nodes":[],"categories_segments":[],"categories_sizes":[],"default_left":[0,0,0,0,0,0,0,0,0,0,0,0,0,0,0],"id":27,"left_children":[1,3,5,7,9,11,13,-1,-1,-1,-1,-1,-1,-1,-1],"loss_changes":[1.3577878E2,1.6041895E2,1.3050375E2,1.8331377E2,2.8999313E1,3.4765347E1,7.8762817E0,0E0,0E0,0E0,0E0,0E0,0E0,0E0,0E0],"parents":[2147483647,0,0,1,1,2,2,3,3,4,4,5,5,6,6],"right_children":[2,4,6,8,10,12,14,-1,-1,-1,-1,-1,-1,-1,-1],"split_conditions":[5.550923E3,8.058353E-2,-5.938304E-2,7.7865458E0,-2.981285E-1,1.1326736E-2,-1.7259178E-4,-5.3549267E-4,8.9487685E-3,-5.752121E-3,-2.6697214E-3,-3.315911E-3,1.4041885E-2,-2.4928765E-3,-5.932887E-3],"split_indices":[18,21,7,15,9,1,7,0,0,0,0,0,0,0,0],"split_type":[0,0,0,0,0,0,0,0,0,0,0,0,0,0,0],"sum_hessian":[4.2008E3,2.8382158E3,1.362584E3,1.4821641E3,1.3560519E3,5.7865128E1,1.3047189E3,1.2392858E3,2.428782E2,4.6687964E2,8.891722E2,1.523636E1,4.262877E1,7.247509E1,1.2322438E3],"tree_param":{"num_deleted":"0","num_feature":"52","num_nodes":"15","size_leaf_vector":"1"}},{"base_weights":[4.9606207E-1,4.5113828E-2,5.663495E-1,-3.9462906E-1,5.164637E-1,3.1858826E-1,6.177201E-1,1.7176504E-3,-5.046626E-3,7.874797E-3,-9.172961E-3,5.4192357E-3,-1.7460721E-3,5.3485916E-3,7.668872E-3],"categories":[],"categories_nodes":[],"categories_segments":[],"categories_sizes":[],"default_left":[0,0,0,0,0,0,0,0,0,0,0,0,0,0,0],"id":28,"left_children":[1,3,5,7,9,11,13,-1,-1,-1,-1,-1,-1,-1,-1],"loss_changes":[1.7316516E2,1.5315257E2,5.996936E1,2.391389E1,1.3928284E2,8.9741745E1,4.7971436E1,0E0,0E0,0E0,0E0,0E0,0E0,0E0,0E0],"parents":[2147483647,0,0,1,1,2,2,3,3,4,4,5,5,6,6],"right_children":[2,4,6,8,10,12,14,-1,-1,-1,-1,-1,-1,-1,-1],"split_conditions":[7.405368E1,1.859986E-2,-1.7259178E-4,2.4835932E-1,2.1177427E-1,3.086261E3,5.745836E3,1.7176504E-3,-5.046626E-3,7.874797E-3,-9.172961E-3,5.4192357E-3,-1.7460721E-3,5.3485916E-3,7.668872E-3],"split_indices":[17,2,7,22,21,19,19,0,0,0,0,0,0,0,0],"split_type":[0,0,0,0,0,0,0,0,0,0,0,0,0,0,0],"sum_hessian":[5.4631187E3,7.3691064E2,4.726208E3,3.813217E2,3.5558893E2,8.1287915E2,3.913329E3,6.1937836E1,3.1938385E2,2.9943842E2,5.6150517E1,5.5944507E2,2.5343411E2,2.5187644E3,1.3945646E3],"tree_param":{"num_deleted":"0","num_feature":"52","num_nodes":"15","size_leaf_vector":"1"}},{"base_weights":[-4.248249E-1,-4.4145188E-1,1.4583846E0,-5.0556105E-1,-1.5883772E-1,2.9184658E-3,1.6857719E-2,7.878196E-3,-5.192003E-3,-3.9920555E-3,3.115933E-3],"categories":[],"categories_nodes":[],"categories_segments":[],"categories_sizes":[],"default_left":[0,0,0,0,0,0,0,0,0,0,0],"id":29,"left_children":[1,3,5,7,9,-1,-1,-1,-1,-1,-1],"loss_changes":[1.23783325E2,7.056232E1,8.699165E0,5.64646E1,8.1808975E1,0E0,0E0,0E0,0E0,0E0,0E0],"parents":[2147483647,0,0,1,1,2,2,3,3,4,4],"right_children":[2,4,6,8,10,-1,-1,-1,-1,-1,-1],"split_conditions":[3.840142E-1,7.443218E-1,2.2677746E-1,-2.1417708E0,5.391302E3,2.9184658E-3,1.6857719E-2,7.878196E-3,-5.192003E-3,-3.9920555E-3,3.115933E-3],"split_indices":[5,3,21,3,19,0,0,0,0,0,0],"split_type":[0,0,0,0,0,0,0,0,0,0,0],"sum_hessian":[3.9316501E3,3.898E3,3.3650116E1,3.1766167E3,7.2138336E2,5.8617516E0,2.7788364E1,3.2556896E1,3.1440598E3,4.7753644E2,2.4384695E2],"tree_param":{"num_deleted":"0","num_feature":"52","num_nodes":"11","size_leaf_vector":"1"}},{"base_weights":[-2.4503428E-1,8.660991E-2,-3.7154612E-1,-1.9789518E-1,4.317369E-1,-2.975447E-1,-6.049322E-1,-6.729262E-4,-6.609176E-3,2.8903969E-3,1.1804734E-2,-3.2008237E-3,1.1507711E-2,-3.357994E-3,-6.578555E-3],"categories":[],"categories_nodes":[],"categories_segments":[],"categories_sizes":[],"default_left":[0,0,0,0,0,0,0,0,0,0,0,0,0,0,0],"id":30,"left_children":[1,3,5,7,9,11,13,-1,-1,-1,-1,-1,-1,-1,-1],"loss_changes":[1.7620175E2,1.1401006E2,5.2316254E1,3.8455673E1,5.5706337E1,7.576369E1,1.0188019E1,0E0,0E0,0E0,0E0,0E0,0E0,0E0,0E0],"parents":[2147483647,0,0,1,1,2,2,3,3,4,4,5,5,6,6],"right_children":[2,4,6,8,10,12,14,-1,-1,-1,-1,-1,-1,-1,-1],"split_conditions":[-7.3636025E-1,-1.7305234E-1,2.0154113E4,5.364678E3,1.139098E0,1.712476E4,9.804335E-3,-6.729262E-4,-6.609176E-3,2.8903969E-3,1.1804734E-2,-3.2008237E-3,1.1507711E-2,-3.357994E-3,-6.578555E-3],"split_indices":[3,34,18,17,41,17,36,0,0,0,0,0,0,0,0],"split_type":[0,0,0,0,0,0,0,0,0,0,0,0,0,0,0],"sum_hessian":[4.19782E3,1.1592422E3,3.0385774E3,6.3566174E2,5.235805E2,2.3087878E3,7.297896E2,4.9670407E2,1.3895766E2,4.40932E2,8.264852E1,2.2741777E3,3.461017E1,1.2113295E2,6.086566E2],"tree_param":{"num_deleted":"0","num_feature":"52","num_nodes":"15","size_leaf_vector":"1"}},{"base_weights":[4.9543017E-1,5.4554716E-2,5.650187E-1,7.042214E-1,-1.9404824E-1,3.0119142E-1,6.2860197E-1,-6.400717E-3,8.525294E-3,-4.826379E-3,1.1877398E-3,8.274268E-3,1.6813156E-3,3.0275641E-3,6.838442E-3],"categories":[],"categories_nodes":[],"categories_segments":[],"categories_sizes":[],"default_left":[0,0,0,0,0,0,0,0,0,0,0,0,0,0,0],"id":31,"left_children":[1,3,5,7,9,11,13,-1,-1,-1,-1,-1,-1,-1,-1],"loss_changes":[1.6656006E2,1.1987024E2,7.847925E1,4.1493813E1,4.8532112E1,6.376523E1,6.779822E1,0E0,0E0,0E0,0E0,0E0,0E0,0E0,0E0],"parents":[2147483647,0,0,1,1,2,2,3,3,4,4,5,5,6,6],"right_children":[2,4,6,8,10,12,14,-1,-1,-1,-1,-1,-1,-1,-1],"split_conditions":[7.405368E1,-3.1556404E-1,-8.4556735E-1,5.439549E-1,2.3081705E-1,9.186254E2,-1.7259178E-4,-6.400717E-3,8.525294E-3,-4.826379E-3,1.1877398E-3,8.274268E-3,1.6813156E-3,3.0275641E-3,6.838442E-3],"split_indices":[17,48,3,22,7,17,7,0,0,0,0,0,0,0,0],"split_type":[0,0,0,0,0,0,0,0,0,0,0,0,0,0,0],"sum_hessian":[5.428971E3,7.4034283E2,4.6886284E3,2.0438828E2,5.359545E2,9.116479E2,3.7769805E3,1.997898E1,1.844093E2,2.7849246E2,2.574621E2,1.829368E2,7.2871106E2,5.4844775E2,3.2285327E3],"tree_param":{"num_deleted":"0","num_feature":"52","num_nodes":"15","size_leaf_vector":"1"}},{"base_weights":[-4.2237222E-1,-4.395863E-1,1.4135745E0,1.7346751E-2,-4.5027137E-1,1.6831892E-2,-2.7775794E-5,-5.2898675E-3,-2.898376E-3],"categories":[],"categories_nodes":[],"categories_segments":[],"categories_sizes":[],"default_left":[0,0,0,0,0,0,0,0,0],"id":32,"left_children":[1,3,5,-1,7,-1,-1,-1,-1],"loss_changes":[1.2494098E2,9.13371E1,1.4048706E1,0E0,4.884076E1,0E0,0E0,0E0,0E0],"parents":[2147483647,0,0,1,1,2,2,4,4],"right_children":[2,4,6,-1,8,-1,-1,-1,-1],"split_conditions":[5.7798743E-1,2.6070969E1,2.4558721E-1,1.7346751E-2,5.1903145E3,1.6831892E-2,-2.7775794E-5,-5.2898675E-3,-2.898376E-3],"split_indices":[6,19,34,0,19,0,0,0,0],"split_type":[0,0,0,0,0,0,0,0,0],"sum_hessian":[3.9326526E3,3.8968755E3,3.577704E1,1.8267923E1,3.8786077E3,2.9897411E1,5.8796277E0,2.6004321E3,1.2781755E3],"tree_param":{"num_deleted":"0","num_feature":"52","num_nodes":"9","size_leaf_vector":"1"}},{"base_weights":[-2.3799495E-1,1.4352371E-1,-3.5358864E-1,2.7477872E-1,-3.991712E-1,1.18342884E-1,-4.4885662E-1,7.2617396E-3,4.4974004E-5,-6.3254302E-3,8.127571E-3,8.791234E-3,-1.2001346E-3,-2.4008378E-4,-5.2050566E-3],"categories":[],"categories_nodes":[],"categories_segments":[],"categories_sizes":[],"default_left":[0,0,0,0,0,0,0,0,0,0,0,0,0,0,0],"id":33,"left_children":[1,3,5,7,9,11,13,-1,-1,-1,-1,-1,-1,-1,-1],"loss_changes":[1.8347404E2,6.9050285E1,1.4357916E2,9.5152374E1,5.3940453E1,9.747944E1,8.084613E1,0E0,0E0,0E0,0E0,0E0,0E0,0E0,0E0],"parents":[2147483647,0,0,1,1,2,2,3,3,4,4,5,5,6,6],"right_children":[2,4,6,8,10,12,14,-1,-1,-1,-1,-1,-1,-1,-1],"split_conditions":[-8.309842E-1,5.364678E3,3.496247E-2,9.164061E-3,1.1449091E-2,6.294541E-2,7.5365685E1,7.2617396E-3,4.4974004E-5,-6.3254302E-3,8.127571E-3,8.791234E-3,-1.2001346E-3,-2.4008378E-4,-5.2050566E-3],"split_indices":[3,17,7,2,1,21,18,0,0,0,0,0,0,0,0],"split_type":[0,0,0,0,0,0,0,0,0,0,0,0,0,0,0],"sum_hessian":[4.158149E3,9.668396E2,3.1913093E3,7.789404E2,1.8789917E2,5.359781E2,2.6553313E3,2.9109598E2,4.8784445E2,1.5796007E2,2.9939102E1,1.27222824E2,4.0875528E2,3.833809E2,2.2719504E3],"tree_param":{"num_deleted":"0","num_feature":"52","num_nodes":"15","size_leaf_vector":"1"}},{"base_weights":[4.929901E-1,7.263818E-2,5.597301E-1,-3.9452162E-1,4.6990395E-1,6.089929E-1,3.3697212E-1,-1.1599711E-3,-5.709968E-3,8.0514075E-3,7.791118E-4,7.817651E-3,5.3469324E-3,1.6915374E-3,7.2670635E-3],"categories":[],"categories_nodes":[],"categories_segments":[],"categories_sizes":[],"default_left":[0,0,0,0,0,0,0,0,0,0,0,0,0,0,0],"id":34,"left_children":[1,3,5,7,9,11,13,-1,-1,-1,-1,-1,-1,-1,-1],"loss_changes":[1.5169104E2,1.3792906E2,5.1012207E1,1.6726337E1,5.2707222E1,4.8629395E1,5.5306343E1,0E0,0E0,0E0,0E0,0E0,0E0,0E0,0E0],"parents":[2147483647,0,0,1,1,2,2,3,3,4,4,5,5,6,6],"right_children":[2,4,6,8,10,12,14,-1,-1,-1,-1,-1,-1,-1,-1],"split_conditions":[7.405368E1,1.6659051E-3,4.4123536E-1,4.88601E1,1.1781403E-1,9.186254E2,6.0971265E3,-1.1599711E-3,-5.709968E-3,8.0514075E-3,7.791118E-4,7.817651E-3,5.3469324E-3,1.6915374E-3,7.2670635E-3],"split_indices":[17,51,51,17,47,17,17,0,0,0,0,0,0,0,0],"split_type":[0,0,0,0,0,0,0,0,0,0,0,0,0,0,0],"sum_hessian":[5.4075015E3,7.41207E2,4.6662944E3,3.4064114E2,4.0056586E2,3.8198115E3,8.464829E2,1.3276312E2,2.07878E2,2.1534569E2,1.8522017E2,1.1458335E3,2.673978E3,5.9270154E2,2.537814E2],"tree_param":{"num_deleted":"0","num_feature":"52","num_nodes":"15","size_leaf_vector":"1"}},{"base_weights":[-4.2589867E-1,-4.4514713E-1,1.4589359E0,1.0397767E0,-4.5666134E-1,6.509143E-3,1.653778E-2,-5.8892285E-3,1.6922051E-2,-5.2054636E-3,-1.82666E-3],"categories":[],"categories_nodes":[],"categories_segments":[],"categories_sizes":[],"default_left":[0,0,0,0,0,0,0,0,0,0,0],"id":35,"left_children":[1,3,5,7,9,-1,-1,-1,-1,-1,-1],"loss_changes":[1.436482E2,6.719763E1,5.233391E0,3.3227783E1,6.77005E1,0E0,0E0,0E0,0E0,0E0,0E0],"parents":[2147483647,0,0,1,1,2,2,3,3,4,4],"right_children":[2,4,6,8,10,-1,-1,-1,-1,-1,-1],"split_conditions":[3.840142E-1,-2.1417708E0,3.7631094E2,5.5888245E1,7.443218E-1,6.509143E-3,1.653778E-2,-5.8892285E-3,1.6922051E-2,-5.2054636E-3,-1.82666E-3],"split_indices":[5,3,42,14,3,0,0,0,0,0,0],"split_type":[0,0,0,0,0,0,0,0,0,0,0],"sum_hessian":[3.9405142E3,3.9014353E3,3.907871E1,2.9332113E1,3.8721033E3,8.435778E0,3.064293E1,8.417155E0,2.0914957E1,3.139252E3,7.328512E2],"tree_param":{"num_deleted":"0","num_feature":"52","num_nodes":"11","size_leaf_vector":"1"}},{"base_weights":[-2.3641576E-1,1.0275367E-1,-3.6069816E-1,2.3203285E-1,-4.2009467E-1,6.422346E-2,-4.489771E-1,-1.0027977E-3,4.748077E-3,1.5816594E-2,-5.1566316E-3,7.7209375E-3,-1.6576988E-3,-1.0094804E-3,-5.084637E-3],"categories":[],"categories_nodes":[],"categories_segments":[],"categories_sizes":[],"default_left":[0,0,0,0,0,0,0,0,0,0,0,0,0,0,0],"id":36,"left_children":[1,3,5,7,9,11,13,-1,-1,-1,-1,-1,-1,-1,-1],"loss_changes":[1.760666E2,7.5845314E1,1.1467749E2,7.258654E1,4.338351E1,8.5864136E1,5.234253E1,0E0,0E0,0E0,0E0,0E0,0E0,0E0,0E0],"parents":[2147483647,0,0,1,1,2,2,3,3,4,4,5,5,6,6],"right_children":[2,4,6,8,10,12,14,-1,-1,-1,-1,-1,-1,-1,-1],"split_conditions":[-7.4271023E-1,5.364678E3,3.496247E-2,9.2352164E-1,-9.030306E-2,6.294541E-2,7.460051E1,-1.0027977E-3,4.748077E-3,1.5816594E-2,-5.1566316E-3,7.7209375E-3,-1.6576988E-3,-1.0094804E-3,-5.084637E-3],"split_indices":[3,17,7,41,7,21,17,0,0,0,0,0,0,0,0],"split_type":[0,0,0,0,0,0,0,0,0,0,0,0,0,0,0],"sum_hessian":[4.1749883E3,1.1196396E3,3.0553486E3,8.9812585E2,2.2151385E2,5.256172E2,2.5297314E3,3.7939426E2,5.1873157E2,9.385129E0,2.1212872E2,1.2831967E2,3.9729752E2,3.6966827E2,2.1600632E3],"tree_param":{"num_deleted":"0","num_feature":"52","num_nodes":"15","size_leaf_vector":"1"}},{"base_weights":[4.9033633E-1,5.726942E-2,5.5805254E-1,-3.7268287E-1,5.1730895E-1,5.0313413E-1,7.969627E-1,5.1307185E-3,-4.775736E-3,6.718953E-3,-7.5892326E-3,7.43041E-3,4.280846E-3,8.21813E-3,-3.8746716E-3],"categories":[],"categories_nodes":[],"categories_segments":[],"categories_sizes":[],"default_left":[0,0,0,0,0,0,0,0,0,0,0,0,0,0,0],"id":37,"left_children":[1,3,5,7,9,11,13,-1,-1,-1,-1,-1,-1,-1,-1],"loss_changes":[1.619552E2,1.4815091E2,6.2272095E1,3.6222908E1,7.188745E1,6.9660034E1,2.6546082E1,0E0,0E0,0E0,0E0,0E0,0E0,0E0,0E0],"parents":[2147483647,0,0,1,1,2,2,3,3,4,4,5,5,6,6],"right_children":[2,4,6,8,10,12,14,-1,-1,-1,-1,-1,-1,-1,-1],"split_conditions":[7.405368E1,1.859986E-2,1.6902387E-2,-2.0886074E-1,5.7798743E-1,8.6876794E2,3.0219251E-2,5.1307185E-3,-4.775736E-3,6.718953E-3,-7.5892326E-3,7.43041E-3,4.280846E-3,8.21813E-3,-3.8746716E-3],"split_indices":[17,2,2,34,6,19,2,0,0,0,0,0,0,0,0],"split_type":[0,0,0,0,0,0,0,0,0,0,0,0,0,0,0],"sum_hessian":[5.5227373E3,7.4703754E2,4.7756997E3,3.8624417E2,3.6079337E2,3.8856172E3,8.900825E2,4.0483963E1,3.457602E2,3.2223544E2,3.8557934E1,9.2376465E2,2.9618525E3,8.7209143E2,1.7991093E1],"tree_param":{"num_deleted":"0","num_feature":"52","num_nodes":"15","size_leaf_vector":"1"}},{"base_weights":[-4.161181E-1,-4.5325756E-1,7.239824E-1,-5.1534367E-1,-1.7671749E-1,-3.899128E-1,1.3192383E0,9.274904E-3,-5.280655E-3,3.3121977E-3,-3.7769242E-3,-5.56481E-3,5.6730895E-3,1.4815094E-2,-6.2948116E-4],"categories":[],"categories_nodes":[],"categories_segments":[],"categories_sizes":[],"default_left":[0,0,0,0,0,0,0,0,0,0,0,0,0,0,0],"id":38,"left_children":[1,3,5,7,9,11,13,-1,-1,-1,-1,-1,-1,-1,-1],"loss_changes":[1.6612317E2,6.502582E1,8.267484E1,5.7332153E1,7.1265526E1,7.319626E0,1.8257294E1,0E0,0E0,0E0,0E0,0E0,0E0,0E0,0E0],"parents":[2147483647,0,0,1,1,2,2,3,3,4,4,5,5,6,6],"right_children":[2,4,6,8,10,12,14,-1,-1,-1,-1,-1,-1,-1,-1],"split_conditions":[2.688849E0,7.443218E-1,2.653061E-1,-2.1417708E0,-6.863345E-1,2.0721702E-1,2.3249902E4,9.274904E-3,-5.280655E-3,3.3121977E-3,-3.7769242E-3,-5.56481E-3,5.6730895E-3,1.4815094E-2,-6.2948116E-4],"split_indices":[31,3,6,3,30,21,18,0,0,0,0,0,0,0,0],"split_type":[0,0,0,0,0,0,0,0,0,0,0,0,0,0,0],"sum_hessian":[3.9145488E3,3.7916365E3,1.2291243E2,3.095746E3,6.958904E2,4.2927563E1,7.998487E1,2.6428963E1,3.0693171E3,1.9709955E2,4.9879083E2,3.6921436E1,6.006127E0,7.151681E1,8.468062E0],"tree_param":{"num_deleted":"0","num_feature":"52","num_nodes":"15","size_leaf_vector":"1"}},{"base_weights":[-2.2591275E-1,1.23319075E-1,-3.61457E-1,-2.2147885E-1,4.5855096E-1,6.2098585E-2,-4.4714874E-1,-3.296746E-3,3.0840815E-3,6.30667E-3,-4.429001E-3,-2.4247724E-3,6.419466E-3,-1.1221499E-3,-5.0370754E-3],"categories":[],"categories_nodes":[],"categories_segments":[],"categories_sizes":[],"default_left":[0,0,0,0,0,0,0,0,0,0,0,0,0,0,0],"id":39,"left_children":[1,3,5,7,9,11,13,-1,-1,-1,-1,-1,-1,-1,-1],"loss_changes":[1.9651016E2,1.3432254E2,1.0855795E2,3.295903E1,9.16803E1,8.917374E1,4.70589E1,0E0,0E0,0E0,0E0,0E0,0E0,0E0,0E0],"parents":[2147483647,0,0,1,1,2,2,3,3,4,4,5,5,6,6],"right_children":[2,4,6,8,10,12,14,-1,-1,-1,-1,-1,-1,-1,-1],"split_conditions":[-7.3636025E-1,-1.9458383E-1,3.496247E-2,6.25E1,2.744178E-1,3.7022382E-2,7.460051E1,-3.296746E-3,3.0840815E-3,6.30667E-3,-4.429001E-3,-2.4247724E-3,6.419466E-3,-1.1221499E-3,-5.0370754E-3],"split_indices":[3,34,7,25,7,6,17,0,0,0,0,0,0,0,0],"split_type":[0,0,0,0,0,0,0,0,0,0,0,0,0,0,0],"sum_hessian":[4.1494155E3,1.1602091E3,2.9892063E3,5.7211145E2,5.8809766E2,5.030441E2,2.486162E3,4.754158E2,9.669565E1,4.940651E2,9.403257E1,3.3018842E2,1.728557E2,3.5960605E2,2.1265562E3],"tree_param":{"num_deleted":"0","num_feature":"52","num_nodes":"15","size_leaf_vector":"1"}},{"base_weights":[4.786874E-1,7.053247E-2,5.4317117E-1,-3.80206E-1,5.60417E-1,2.3873678E-1,6.043063E-1,5.8105863E-3,-5.148366E-3,6.8548643E-3,-8.05316E-3,7.602607E-3,1.1707935E-3,3.0724844E-3,6.607785E-3],"categories":[],"categories_nodes":[],"categories_segments":[],"categories_sizes":[],"default_left":[0,0,0,0,0,0,0,0,0,0,0,0,0,0,0],"id":40,"left_children":[1,3,5,7,9,11,13,-1,-1,-1,-1,-1,-1,-1,-1],"loss_changes":[1.4421606E2,1.6558423E2,8.7944214E1,5.0854744E1,6.1922043E1,5.023494E1,6.590625E1,0E0,0E0,0E0,0E0,0E0,0E0,0E0,0E0],"parents":[2147483647,0,0,1,1,2,2,3,3,4,4,5,5,6,6],"right_children":[2,4,6,8,10,12,14,-1,-1,-1,-1,-1,-1,-1,-1],"split_conditions":[7.462177E1,1.859986E-2,-9.512711E-1,2.4187368E-1,3.2250166E-1,9.652132E2,1.3165375E-2,5.8105863E-3,-5.148366E-3,6.8548643E-3,-8.05316E-3,7.602607E-3,1.1707935E-3,3.0724844E-3,6.607785E-3],"split_indices":[18,2,3,22,16,18,7,0,0,0,0,0,0,0,0],"split_type":[0,0,0,0,0,0,0,0,0,0,0,0,0,0,0],"sum_hessian":[5.479916E3,7.479303E2,4.731986E3,3.896451E2,3.582852E2,7.921619E2,3.9398237E3,4.74605E1,3.421846E2,3.286835E2,2.9601696E1,1.4884415E2,6.433178E2,6.303687E2,3.309455E3],"tree_param":{"num_deleted":"0","num_feature":"52","num_nodes":"15","size_leaf_vector":"1"}},{"base_weights":[-4.194072E-1,-4.5756122E-1,5.201133E-1,8.4083825E-1,-4.6869302E-1,-2.638001E-1,1.2283552E0,-6.060495E-3,1.6885206E-2,-5.244237E-3,-2.140929E-3,-5.5973977E-3,1.0313553E-2,1.6351681E-2,4.8473794E-3],"categories":[],"categories_nodes":[],"categories_segments":[],"categories_sizes":[],"default_left":[0,0,0,0,0,0,0,0,0,0,0,0,0,0,0],"id":41,"left_children":[1,3,5,7,9,11,13,-1,-1,-1,-1,-1,-1,-1,-1],"loss_changes":[1.4046521E2,5.473578E1,8.534204E1,4.0661484E1,5.279065E1,2.8751064E1,2.3597427E1,0E0,0E0,0E0,0E0,0E0,0E0,0E0,0E0],"parents":[2147483647,0,0,1,1,2,2,3,3,4,4,5,5,6,6],"right_children":[2,4,6,8,10,12,14,-1,-1,-1,-1,-1,-1,-1,-1],"split_conditions":[2.579933E0,-2.1417708E0,2.7774101E-1,5.5888245E1,7.6177204E-1,1.2681698E8,8.7573904E-1,-6.060495E-3,1.6885206E-2,-5.244237E-3,-2.140929E-3,-5.5973977E-3,1.0313553E-2,1.6351681E-2,4.8473794E-3],"split_indices":[31,3,6,14,3,42,40,0,0,0,0,0,0,0,0],"split_type":[0,0,0,0,0,0,0,0,0,0,0,0,0,0,0],"sum_hessian":[3.910883E3,3.7587527E3,1.5213031E2,3.1318073E1,3.7274348E3,7.250552E1,7.962479E1,1.1675133E1,1.964294E1,3.0571743E3,6.702603E2,5.9481888E1,1.3023637E1,5.0693047E1,2.8931744E1],"tree_param":{"num_deleted":"0","num_feature":"52","num_nodes":"15","size_leaf_vector":"1"}},{"base_weights":[-2.4110202E-1,-1.0914312E-1,-5.156463E-1,1.11737445E-1,-3.5551876E-1,7.180676E-1,-5.7590383E-1,7.901577E-3,-8.558485E-5,9.195799E-3,-3.8877695E-3,-5.271605E-3,1.4382364E-2,1.6869873E-2,-5.893919E-3],"categories":[],"categories_nodes":[],"categories_segments":[],"categories_sizes":[],"default_left":[0,0,0,0,0,0,0,0,0,0,0,0,0,0,0],"id":42,"left_children":[1,3,5,7,9,11,13,-1,-1,-1,-1,-1,-1,-1,-1],"loss_changes":[1.5100609E2,1.5336177E2,1.01018585E2,1.2130769E2,5.684758E1,5.7672348E1,4.039331E1,0E0,0E0,0E0,0E0,0E0,0E0,0E0,0E0],"parents":[2147483647,0,0,1,1,2,2,3,3,4,4,5,5,6,6],"right_children":[2,4,6,8,10,12,14,-1,-1,-1,-1,-1,-1,-1,-1],"split_conditions":[5.364678E3,8.058353E-2,-4.2613372E-2,7.405368E1,1.0488816E-2,1.1414044E-2,-6.2555856E-1,7.901577E-3,-8.558485E-5,9.195799E-3,-3.8877695E-3,-5.271605E-3,1.4382364E-2,1.6869873E-2,-5.893919E-3],"split_indices":[17,21,7,17,2,1,34,0,0,0,0,0,0,0,0],"split_type":[0,0,0,0,0,0,0,0,0,0,0,0,0,0,0],"sum_hessian":[4.1687046E3,2.816405E3,1.3522994E3,1.485327E3,1.3310781E3,6.2465416E1,1.2898341E3,2.228688E2,1.2624581E3,3.315832E1,1.2979198E3,2.2987038E1,3.947838E1,6.907423E0,1.2829266E3],"tree_param":{"num_deleted":"0","num_feature":"52","num_nodes":"15","size_leaf_vector":"1"}},{"base_weights":[4.8153692E-1,6.781802E-2,5.468503E-1,-3.8396773E-1,4.6226794E-1,2.5569928E-1,6.0320985E-1,4.241323E-3,-5.034741E-3,8.372354E-3,1.7575613E-3,7.919136E-3,1.1521614E-3,2.813172E-3,6.574823E-3],"categories":[],"categories_nodes":[],"categories_segments":[],"categories_sizes":[],"default_left":[0,0,0,0,0,0,0,0,0,0,0,0,0,0,0],"id":43,"left_children":[1,3,5,7,9,11,13,-1,-1,-1,-1,-1,-1,-1,-1],"loss_changes":[1.4781274E2,1.3332689E2,7.7385864E1,3.3899765E1,4.275567E1,5.776966E1,6.896643E1,0E0,0E0,0E0,0E0,0E0,0E0,0E0,0E0],"parents":[2147483647,0,0,1,1,2,2,3,3,4,4,5,5,6,6],"right_children":[2,4,6,8,10,12,14,-1,-1,-1,-1,-1,-1,-1,-1],"split_conditions":[7.405368E1,2.5038585E-2,-9.512711E-1,-1.5732621E0,-3.8766018E-1,9.019533E2,-1.7259178E-4,4.241323E-3,-5.034741E-3,8.372354E-3,1.7575613E-3,7.919136E-3,1.1521614E-3,2.813172E-3,6.574823E-3],"split_indices":[17,51,3,3,48,17,7,0,0,0,0,0,0,0,0],"split_type":[0,0,0,0,0,0,0,0,0,0,0,0,0,0,0],"sum_hessian":[5.4705854E3,7.4616205E2,4.7244233E3,3.4781567E2,3.9834634E2,7.671084E2,3.957315E3,4.448177E1,3.033339E2,1.7170636E2,2.2663998E2,1.5828987E2,6.088185E2,5.7184656E2,3.3854683E3],"tree_param":{"num_deleted":"0","num_feature":"52","num_nodes":"15","size_leaf_vector":"1"}},{"base_weights":[-4.1176254E-1,-4.379741E-1,7.7023137E-1,-4.9554065E-1,-1.8275094E-1,-2.8229213E-1,1.4319066E0,8.140101E-3,-5.0955187E-3,-4.2960583E-3,3.0220342E-3,7.4843755E-3,-5.212985E-3,1.5946368E-2,3.4065987E-4],"categories":[],"categories_nodes":[],"categories_segments":[],"categories_sizes":[],"default_left":[0,0,0,0,0,0,0,0,0,0,0,0,0,0,0],"id":44,"left_children":[1,3,5,7,9,11,13,-1,-1,-1,-1,-1,-1,-1,-1],"loss_changes":[1.2193988E2,5.633441E1,5.9957886E1,5.7901306E1,8.4933304E1,8.727426E0,1.1926544E1,0E0,0E0,0E0,0E0,0E0,0E0,0E0,0E0],"parents":[2147483647,0,0,1,1,2,2,3,3,4,4,5,5,6,6],"right_children":[2,4,6,8,10,12,14,-1,-1,-1,-1,-1,-1,-1,-1],"split_conditions":[2.8588033E-1,7.443218E-1,1.6148746E-1,-2.1417708E0,5.391302E3,5.211047E1,3.317365E-1,8.140101E-3,-5.0955187E-3,-4.2960583E-3,3.0220342E-3,7.4843755E-3,-5.212985E-3,1.5946368E-2,3.4065987E-4],"split_indices":[5,3,21,3,19,18,34,0,0,0,0,0,0,0,0],"split_type":[0,0,0,0,0,0,0,0,0,0,0,0,0,0,0],"sum_hessian":[3.9239531E3,3.8394402E3,8.451294E1,3.1320525E3,7.0738776E2,3.2843044E1,5.16699E1,3.2551464E1,3.099501E3,4.6884637E2,2.3854137E2,5.7809377E0,2.7062105E1,4.615586E1,5.514038E0],"tree_param":{"num_deleted":"0","num_feature":"52","num_nodes":"15","size_leaf_vector":"1"}},{"base_weights":[-2.4378596E-1,8.288529E-2,-3.6831132E-1,-1.8966274E-1,4.2655483E-1,4.989068E-2,-4.521606E-1,3.8640524E-4,-4.62623E-3,5.953608E-3,-4.53586E-3,-2.6353684E-3,6.465444E-3,-8.5202744E-4,-5.147309E-3],"categories":[],"categories_nodes":[],"categories_segments":[],"categories_sizes":[],"default_left":[0,0,0,0,0,0,0,0,0,0,0,0,0,0,0],"id":45,"left_children":[1,3,5,7,9,11,13,-1,-1,-1,-1,-1,-1,-1,-1],"loss_changes":[1.6852316E2,1.0723239E2,1.0518713E2,3.9819756E1,7.548901E1,9.400755E1,5.7318146E1,0E0,0E0,0E0,0E0,0E0,0E0,0E0,0E0],"parents":[2147483647,0,0,1,1,2,2,3,3,4,4,5,5,6,6],"right_children":[2,4,6,8,10,12,14,-1,-1,-1,-1,-1,-1,-1,-1],"split_conditions":[-7.3636025E-1,-1.672253E-1,3.496247E-2,9.482608E6,2.744178E-1,3.7022382E-2,7.37502E1,3.8640524E-4,-4.62623E-3,5.953608E-3,-4.53586E-3,-2.6353684E-3,6.465444E-3,-8.5202744E-4,-5.147309E-3],"split_indices":[3,34,7,42,7,6,19,0,0,0,0,0,0,0,0],"split_type":[0,0,0,0,0,0,0,0,0,0,0,0,0,0,0],"sum_hessian":[4.14102E3,1.1429688E3,2.9980515E3,6.376929E2,5.052759E2,5.007824E2,2.497269E3,3.4771954E2,2.8997333E2,4.2423383E2,8.1042076E1,3.2868143E2,1.7210098E2,3.641269E2,2.133142E3],"tree_param":{"num_deleted":"0","num_feature":"52","num_nodes":"15","size_leaf_vector":"1"}},{"base_weights":[4.712544E-1,1.3008627E-1,5.410008E-1,7.462875E-1,-2.859417E-2,7.426067E-1,4.6527103E-1,-2.594478E-3,8.942873E-3,9.069331E-4,-6.0938695E-3,8.158835E-3,6.8148307E-4,-2.0238578E-3,5.259483E-3],"categories":[],"categories_nodes":[],"categories_segments":[],"categories_sizes":[],"default_left":[0,0,0,0,0,0,0,0,0,0,0,0,0,0,0],"id":46,"left_children":[1,3,5,7,9,11,13,-1,-1,-1,-1,-1,-1,-1,-1],"loss_changes":[1.2882361E2,9.004996E1,6.8313965E1,2.8302696E1,5.0848835E1,6.055078E1,1.3265125E2,0E0,0E0,0E0,0E0,0E0,0E0,0E0,0E0],"parents":[2147483647,0,0,1,1,2,2,3,3,4,4,5,5,6,6],"right_children":[2,4,6,8,10,12,14,-1,-1,-1,-1,-1,-1,-1,-1],"split_conditions":[7.6430305E1,-3.938548E-1,9.4282874E2,1.3404522E-2,1.4568381E0,3.0197954E-2,1.2617573E3,-2.594478E-3,8.942873E-3,9.069331E-4,-6.0938695E-3,8.158835E-3,6.8148307E-4,-2.0238578E-3,5.259483E-3],"split_indices":[18,47,18,1,48,36,18,0,0,0,0,0,0,0,0],"split_type":[0,0,0,0,0,0,0,0,0,0,0,0,0,0,0],"sum_hessian":[5.4158047E3,9.197349E2,4.49607E3,1.875852E2,7.321497E2,1.2252998E3,3.2707698E3,2.396662E1,1.6361858E2,6.080979E2,1.2405176E2,1.1050333E3,1.2026651E2,2.7229248E2,2.9984773E3],"tree_param":{"num_deleted":"0","num_feature":"52","num_nodes":"15","size_leaf_vector":"1"}},{"base_weights":[-4.1264075E-1,-4.4297698E-1,8.7497103E-1,-5.0526184E-1,-1.5876386E-1,-2.9240385E-1,1.5033133E0,-5.161494E-3,1.3363379E-2,-4.2393478E-3,3.3696594E-3,1.2056102E-2,-6.2556276E-3,1.5728297E-2,7.893092E-3],"categories":[],"categories_nodes":[],"categories_segments":[],"categories_sizes":[],"default_left":[0,0,0,0,0,0,0,0,0,0,0,0,0,0,0],"id":47,"left_children":[1,3,5,7,9,11,13,-1,-1,-1,-1,-1,-1,-1,-1],"loss_changes":[1.5104004E2,6.6634094E1,6.580389E1,6.266211E1,8.938689E1,1.6733795E1,1.6419983E0,0E0,0E0,0E0,0E0,0E0,0E0,0E0,0E0],"parents":[2147483647,0,0,1,1,2,2,3,3,4,4,5,5,6,6],"right_children":[2,4,6,8,10,12,14,-1,-1,-1,-1,-1,-1,-1,-1],"split_conditions":[2.8588033E-1,7.443218E-1,1.0823253E-1,3.2544978E-2,5.391302E3,6.9010925E-1,1.7751297E0,-5.161494E-3,1.3363379E-2,-4.2393478E-3,3.3696594E-3,1.2056102E-2,-6.2556276E-3,1.5728297E-2,7.893092E-3],"split_indices":[5,3,4,36,19,15,49,0,0,0,0,0,0,0,0],"split_type":[0,0,0,0,0,0,0,0,0,0,0,0,0,0,0],"sum_hessian":[3.8558218E3,3.7677102E3,8.811156E1,3.0898064E3,6.779038E2,3.1018335E1,5.709322E1,3.0723623E3,1.7444109E1,4.417513E2,2.3615247E2,5.1669526E0,2.5851383E1,5.0931618E1,6.1616035E0],"tree_param":{"num_deleted":"0","num_feature":"52","num_nodes":"15","size_leaf_vector":"1"}},{"base_weights":[-2.3376596E-1,8.878686E-2,-3.555959E-1,-1.893194E-1,4.4741514E-1,6.558727E-2,-4.4182694E-1,7.536289E-3,-2.6278477E-3,6.117683E-3,-3.2917168E-3,-1.3202798E-3,7.1909945E-3,-9.6869934E-4,-5.013407E-3],"categories":[],"categories_nodes":[],"categories_segments":[],"categories_sizes":[],"default_left":[0,0,0,0,0,0,0,0,0,0,0,0,0,0,0],"id":48,"left_children":[1,3,5,7,9,11,13,-1,-1,-1,-1,-1,-1,-1,-1],"loss_changes":[1.6228902E2,1.1306654E2,1.0888611E2,4.444548E1,6.3389397E1,6.598793E1,5.1029663E1,0E0,0E0,0E0,0E0,0E0,0E0,0E0,0E0],"parents":[2147483647,0,0,1,1,2,2,3,3,4,4,5,5,6,6],"right_children":[2,4,6,8,10,12,14,-1,-1,-1,-1,-1,-1,-1,-1],"split_conditions":[-7.4271023E-1,-1.672253E-1,3.496247E-2,-1.6913997E0,2.744178E-1,1.3515233E-1,7.460051E1,7.536289E-3,-2.6278477E-3,6.117683E-3,-3.2917168E-3,-1.3202798E-3,7.1909945E-3,-9.6869934E-4,-5.013407E-3],"split_indices":[3,34,7,49,7,51,17,0,0,0,0,0,0,0,0],"split_type":[0,0,0,0,0,0,0,0,0,0,0,0,0,0,0],"sum_hessian":[4.1280454E3,1.1318003E3,2.9962449E3,6.377303E2,4.9407E2,5.092289E2,2.487016E3,4.542534E1,5.9230493E2,4.0794638E2,8.612361E1,3.9160855E2,1.1762036E2,3.66326E2,2.12069E3],"tree_param":{"num_deleted":"0","num_feature":"52","num_nodes":"15","size_leaf_vector":"1"}},{"base_weights":[4.710323E-1,1.4468615E-1,5.3626055E-1,-1.10418625E-1,5.4818517E-1,7.2603965E-1,4.6447268E-1,5.3954464E-3,-3.0497275E-3,7.892153E-3,-8.95838E-3,9.322589E-3,5.5684373E-3,-4.7066044E-3,5.2996743E-3],"categories":[],"categories_nodes":[],"categories_segments":[],"categories_sizes":[],"default_left":[0,0,0,0,0,0,0,0,0,0,0,0,0,0,0],"id":49,"left_children":[1,3,5,7,9,11,13,-1,-1,-1,-1,-1,-1,-1,-1],"loss_changes":[1.1591968E2,9.363791E1,6.1530273E1,7.069975E1,1.2332562E2,4.290497E1,2.0221326E2,0E0,0E0,0E0,0E0,0E0,0E0,0E0,0E0],"parents":[2147483647,0,0,1,1,2,2,3,3,4,4,5,5,6,6],"right_children":[2,4,6,8,10,12,14,-1,-1,-1,-1,-1,-1,-1,-1],"split_conditions":[7.6430305E1,1.859986E-2,8.6876794E2,2.448055E-1,2.1177427E-1,1.38579225E-2,9.806226E2,5.3954464E-3,-3.0497275E-3,7.892153E-3,-8.95838E-3,9.322589E-3,5.5684373E-3,-4.7066044E-3,5.2996743E-3],"split_indices":[18,2,19,22,21,2,19,0,0,0,0,0,0,0,0],"split_type":[0,0,0,0,0,0,0,0,0,0,0,0,0,0,0],"sum_hessian":[5.448211E3,9.080961E2,4.540115E3,5.5679755E2,3.5129855E2,1.2435474E3,3.2965676E3,1.278627E2,4.2893488E2,3.0143738E2,4.986117E1,5.584218E2,6.851255E2,2.1536745E2,3.0812002E3],"tree_param":{"num_deleted":"0","num_feature":"52","num_nodes":"15","size_leaf_vector":"1"}},{"base_weights":[-4.0858802E-1,-4.4341627E-1,4.879698E-1,-5.0566965E-1,-1.6286209E-1,-3.3470574E-1,1.2096971E0,2.049485E-3,-5.3174943E-3,3.0136162E-3,-4.266367E-3,-4.655869E-3,1.0309851E-2,1.5872078E-2,4.9053067E-3],"categories":[],"categories_nodes":[],"categories_segments":[],"categories_sizes":[],"default_left":[0,0,0,0,0,0,0,0,0,0,0,0,0,0,0],"id":50,"left_children":[1,3,5,7,9,11,13,-1,-1,-1,-1,-1,-1,-1,-1],"loss_changes":[1.2014453E2,6.449811E1,8.596116E1,5.618268E1,8.253237E1,1.26563E1,2.0119263E1,0E0,0E0,0E0,0E0,0E0,0E0,0E0,0E0],"parents":[2147483647,0,0,1,1,2,2,3,3,4,4,5,5,6,6],"right_children":[2,4,6,8,10,12,14,-1,-1,-1,-1,-1,-1,-1,-1],"split_conditions":[2.579933E0,7.443218E-1,2.7774101E-1,-1.7367331E0,1.8486833E-2,1.5247298E0,-1.1474788E-1,2.049485E-3,-5.3174943E-3,3.0136162E-3,-4.266367E-3,-4.655869E-3,1.0309851E-2,1.5872078E-2,4.9053067E-3],"split_indices":[31,3,6,3,36,41,10,0,0,0,0,0,0,0,0],"split_type":[0,0,0,0,0,0,0,0,0,0,0,0,0,0,0],"sum_hessian":[3.839707E3,3.6966116E3,1.4309541E2,3.024655E3,6.719565E2,6.712166E1,7.597375E1,1.0683261E2,2.9178225E3,2.4341742E2,4.285391E2,6.185305E1,5.268612E0,4.902968E1,2.6944069E1],"tree_param":{"num_deleted":"0","num_feature":"52","num_nodes":"15","size_leaf_vector":"1"}},{"base_weights":[-2.4032405E-1,-1.1101968E-1,-5.070647E-1,1.8114425E-1,-3.2659298E-1,7.679726E-1,-5.7524574E-1,-4.9807634E-3,3.7612212E-3,-3.5747804E-3,6.8883738E-3,-6.329516E-3,1.1819531E-2,-3.35747E-3,-5.9871506E-3],"categories":[],"categories_nodes":[],"categories_segments":[],"categories_sizes":[],"default_left":[0,0,0,0,0,0,0,0,0,0,0,0,0,0,0],"id":51,"left_children":[1,3,5,7,9,11,13,-1,-1,-1,-1,-1,-1,-1,-1],"loss_changes":[1.4201491E2,1.7487076E2,1.17329315E2,1.5633583E2,5.034558E1,4.0578087E1,6.9761963E0,0E0,0E0,0E0,0E0,0E0,0E0,0E0,0E0],"parents":[2147483647,0,0,1,1,2,2,3,3,4,4,5,5,6,6],"right_children":[2,4,6,8,10,12,14,-1,-1,-1,-1,-1,-1,-1,-1],"split_conditions":[5.364678E3,1.6839648E-2,-4.2613372E-2,3.374264E-3,3.890476E3,2.9111417E2,8.449864E7,-4.9807634E-3,3.7612212E-3,-3.5747804E-3,6.8883738E-3,-6.329516E-3,1.1819531E-2,-3.35747E-3,-5.9871506E-3],"split_indices":[17,36,7,36,19,22,42,0,0,0,0,0,0,0,0],"split_type":[0,0,0,0,0,0,0,0,0,0,0,0,0,0,0],"sum_hessian":[4.1181123E3,2.7745474E3,1.3435648E3,1.1780754E3,1.5964718E3,6.767764E1,1.2758871E3,2.624067E2,9.1566876E2,1.5499762E3,4.6495705E1,1.53166485E1,5.2360992E1,1.15236244E2,1.1606509E3],"tree_param":{"num_deleted":"0","num_feature":"52","num_nodes":"15","size_leaf_vector":"1"}},{"base_weights":[4.511889E-1,5.637786E-2,5.130681E-1,-3.9753404E-1,5.4963636E-1,2.1331023E-1,5.732231E-1,-9.477718E-3,-2.5025003E-3,6.874492E-3,-7.716897E-3,7.969172E-3,8.1096473E-4,2.9102676E-3,6.2591396E-3],"categories":[],"categories_nodes":[],"categories_segments":[],"categories_sizes":[],"default_left":[0,0,0,0,0,0,0,0,0,0,0,0,0,0,0],"id":52,"left_children":[1,3,5,7,9,11,13,-1,-1,-1,-1,-1,-1,-1,-1],"loss_changes":[1.326665E2,1.652448E2,8.45459E1,3.0916935E1,6.492756E1,6.0613197E1,5.795752E1,0E0,0E0,0E0,0E0,0E0,0E0,0E0,0E0],"parents":[2147483647,0,0,1,1,2,2,3,3,4,4,5,5,6,6],"right_children":[2,4,6,8,10,12,14,-1,-1,-1,-1,-1,-1,-1,-1],"split_conditions":[7.405368E1,1.859986E-2,-9.512711E-1,1.894527E-2,3.2250166E-1,9.019533E2,1.3165375E-2,-9.477718E-3,-2.5025003E-3,6.874492E-3,-7.716897E-3,7.969172E-3,8.1096473E-4,2.9102676E-3,6.2591396E-3],"split_indices":[17,2,3,5,16,17,23,0,0,0,0,0,0,0,0],"split_type":[0,0,0,0,0,0,0,0,0,0,0,0,0,0,0],"sum_hessian":[5.430524E3,7.360671E2,4.6944565E3,3.8342316E2,3.5264392E2,7.853808E2,3.909076E3,7.981344E1,3.036097E2,3.1977182E2,3.287213E1,1.4413307E2,6.4124774E2,6.160774E2,3.2929985E3],"tree_param":{"num_deleted":"0","num_feature":"52","num_nodes":"15","size_leaf_vector":"1"}},{"base_weights":[-4.1126624E-1,-4.305923E-1,1.3752211E0,-4.8979717E-1,-1.7517306E-1,1.5361618E-2,3.7833133E-3,1.43620595E-2,-5.0115483E-3,-3.9795493E-3,2.5319764E-3],"categories":[],"categories_nodes":[],"categories_segments":[],"categories_sizes":[],"default_left":[0,0,0,0,0,0,0,0,0,0,0],"id":53,"left_children":[1,3,5,7,9,-1,-1,-1,-1,-1,-1],"loss_changes":[1.3442944E2,5.791815E1,6.1131287E0,6.882446E1,6.913231E1,0E0,0E0,0E0,0E0,0E0,0E0],"parents":[2147483647,0,0,1,1,2,2,3,3,4,4],"right_children":[2,4,6,8,10,-1,-1,-1,-1,-1,-1],"split_conditions":[3.840142E-1,7.443218E-1,2.4558721E-1,-1.3284557E-1,5.5327017E3,1.5361618E-2,3.7833133E-3,1.43620595E-2,-5.0115483E-3,-3.9795493E-3,2.5319764E-3],"split_indices":[5,3,34,4,17,0,0,0,0,0,0],"split_type":[0,0,0,0,0,0,0,0,0,0,0],"sum_hessian":[3.875444E3,3.8347195E3,4.072469E1,3.1123704E3,7.223491E2,3.4598118E1,6.126572E0,1.7510624E1,3.0948596E3,4.7525513E2,2.47094E2],"tree_param":{"num_deleted":"0","num_feature":"52","num_nodes":"11","size_leaf_vector":"1"}},{"base_weights":[-2.4199112E-1,-1.1886164E-1,-5.0538313E-1,1.7934515E-1,-3.228278E-1,-1.333935E-1,-5.848779E-1,-5.23162E-3,3.6274658E-3,-3.5416628E-3,8.938106E-3,9.116334E-3,-3.455788E-3,5.278184E-3,-5.9880335E-3],"categories":[],"categories_nodes":[],"categories_segments":[],"categories_sizes":[],"default_left":[0,0,0,0,0,0,0,0,0,0,0,0,0,0,0],"id":54,"left_children":[1,3,5,7,9,11,13,-1,-1,-1,-1,-1,-1,-1,-1],"loss_changes":[1.3451904E2,1.7213306E2,3.9003357E1,1.4832005E2,6.438423E1,5.2200993E1,1.7183777E1,0E0,0E0,0E0,0E0,0E0,0E0,0E0,0E0],"parents":[2147483647,0,0,1,1,2,2,3,3,4,4,5,5,6,6],"right_children":[2,4,6,8,10,12,14,-1,-1,-1,-1,-1,-1,-1,-1],"split_conditions":[5.550923E3,1.6625682E-2,2.2222221E1,3.3186052E-3,4.114536E3,-1.0191619E0,-5.8854765E-1,-5.23162E-3,3.6274658E-3,-3.5416628E-3,8.938106E-3,9.116334E-3,-3.455788E-3,5.278184E-3,-5.9880335E-3],"split_indices":[18,36,25,36,17,9,34,0,0,0,0,0,0,0,0],"split_type":[0,0,0,0,0,0,0,0,0,0,0,0,0,0,0],"sum_hessian":[4.1486636E3,2.8280627E3,1.3206006E3,1.1487153E3,1.6793475E3,2.3299525E2,1.0876053E3,2.3742436E2,9.112909E2,1.6378678E3,4.147975E1,3.8767296E1,1.9422795E2,1.2987053E1,1.0746183E3],"tree_param":{"num_deleted":"0","num_feature":"52","num_nodes":"15","size_leaf_vector":"1"}},{"base_weights":[4.534991E-1,4.8632648E-2,5.197823E-1,-3.385483E-1,4.7557712E-1,2.5232005E-1,5.845272E-1,6.27128E-3,-5.012008E-3,6.768615E-3,-5.2489475E-3,7.915609E-3,1.2290324E-3,3.0267956E-3,6.3760537E-3],"categories":[],"categories_nodes":[],"categories_segments":[],"categories_sizes":[],"default_left":[0,0,0,0,0,0,0,0,0,0,0,0,0,0,0],"id":55,"left_children":[1,3,5,7,9,11,13,-1,-1,-1,-1,-1,-1,-1,-1],"loss_changes":[1.45906E2,1.268063E2,8.0770386E1,6.3512856E1,7.3812874E1,6.357999E1,5.6076538E1,0E0,0E0,0E0,0E0,0E0,0E0,0E0,0E0],"parents":[2147483647,0,0,1,1,2,2,3,3,4,4,5,5,6,6],"right_children":[2,4,6,8,10,12,14,-1,-1,-1,-1,-1,-1,-1,-1],"split_conditions":[7.462177E1,1.859986E-2,-8.4556735E-1,2.4187368E-1,1.247658E0,9.652132E2,1.3165375E-2,6.27128E-3,-5.012008E-3,6.768615E-3,-5.2489475E-3,7.915609E-3,1.2290324E-3,3.0267956E-3,6.3760537E-3],"split_indices":[18,2,3,22,47,18,7,0,0,0,0,0,0,0,0],"split_type":[0,0,0,0,0,0,0,0,0,0,0,0,0,0,0],"sum_hessian":[5.436925E3,7.6513214E2,4.671793E3,4.0135995E2,3.637722E2,9.114542E2,3.7603386E3,5.7445774E1,3.4391415E2,3.0311258E2,6.065961E1,1.7541913E2,7.360351E2,5.969914E2,3.1633472E3],"tree_param":{"num_deleted":"0","num_feature":"52","num_nodes":"15","size_leaf_vector":"1"}},{"base_weights":[-4.0543893E-1,-4.4072628E-1,5.2872735E-1,8.9183384E-1,-4.5276812E-1,9.9200076E-1,-3.0391462E-2,-6.045474E-3,1.7269539E-2,-5.096076E-3,-1.9265132E-3,1.5501891E-3,1.3729309E-2,-6.278675E-3,8.275341E-3],"categories":[],"categories_nodes":[],"categories_segments":[],"categories_sizes":[],"default_left":[0,0,0,0,0,0,0,0,0,0,0,0,0,0,0],"id":56,"left_children":[1,3,5,7,9,11,13,-1,-1,-1,-1,-1,-1,-1,-1],"loss_changes":[1.2560077E2,5.92182E1,3.600506E1,4.248475E1,5.361682E1,2.4012863E1,3.3275734E1,0E0,0E0,0E0,0E0,0E0,0E0,0E0,0E0],"parents":[2147483647,0,0,1,1,2,2,3,3,4,4,5,5,6,6],"right_children":[2,4,6,8,10,12,14,-1,-1,-1,-1,-1,-1,-1,-1],"split_conditions":[2.579933E0,-2.1417708E0,6.9840996E1,5.4142896E3,7.6177204E-1,9.44258E-1,1.2681698E8,-6.045474E-3,1.7269539E-2,-5.096076E-3,-1.9265132E-3,1.5501891E-3,1.3729309E-2,-6.278675E-3,8.275341E-3],"split_indices":[31,3,17,17,3,15,42,0,0,0,0,0,0,0,0],"split_type":[0,0,0,0,0,0,0,0,0,0,0,0,0,0,0],"sum_hessian":[3.8021428E3,3.6642568E3,1.3788594E2,3.216165E1,3.6320952E3,7.498271E1,6.2903225E1,1.161887E1,2.054278E1,2.9799675E3,6.521277E2,2.3892633E1,5.109008E1,3.7238068E1,2.5665157E1],"tree_param":{"num_deleted":"0","num_feature":"52","num_nodes":"15","size_leaf_vector":"1"}},{"base_weights":[-2.3761822E-1,7.342669E-2,-3.5994828E-1,-2.0710588E-1,4.2039096E-1,8.594493E-2,-4.4988763E-1,-2.6578023E-3,1.0705033E-2,5.7894886E-3,-4.0846597E-3,-2.263341E-3,7.297938E-3,-1.1065224E-3,-5.035575E-3],"categories":[],"categories_nodes":[],"categories_segments":[],"categories_sizes":[],"default_left":[0,0,0,0,0,0,0,0,0,0,0,0,0,0,0],"id":57,"left_children":[1,3,5,7,9,11,13,-1,-1,-1,-1,-1,-1,-1,-1],"loss_changes":[1.556378E2,1.1253067E2,1.17758545E2,4.8218292E1,6.815425E1,9.9398186E1,4.44209E1,0E0,0E0,0E0,0E0,0E0,0E0,0E0,0E0],"parents":[2147483647,0,0,1,1,2,2,3,3,4,4,5,5,6,6],"right_children":[2,4,6,8,10,12,14,-1,-1,-1,-1,-1,-1,-1,-1],"split_conditions":[-7.3636025E-1,-1.7305234E-1,3.496247E-2,1.0095303E0,2.744178E-1,3.7022382E-2,7.5365685E1,-2.6578023E-3,1.0705033E-2,5.7894886E-3,-4.0846597E-3,-2.263341E-3,7.297938E-3,-1.1065224E-3,-5.035575E-3],"split_indices":[3,34,7,51,7,6,18,0,0,0,0,0,0,0,0],"split_type":[0,0,0,0,0,0,0,0,0,0,0,0,0,0,0],"sum_hessian":[4.0886392E3,1.1542253E3,2.9344136E3,6.384332E2,5.157922E2,4.925479E2,2.4418657E3,6.111577E2,2.7275522E1,4.3321997E2,8.2572205E1,3.321145E2,1.6043341E2,3.3397095E2,2.1078948E3],"tree_param":{"num_deleted":"0","num_feature":"52","num_nodes":"15","size_leaf_vector":"1"}},{"base_weights":[4.5144576E-1,8.686529E-2,5.100963E-1,-3.529655E-1,5.3545016E-1,2.1967933E-1,5.667247E-1,3.996013E-3,-4.9645985E-3,7.7120545E-3,-8.942708E-3,7.6776366E-3,7.599422E-4,2.4574953E-3,6.2173693E-3],"categories":[],"categories_nodes":[],"categories_segments":[],"categories_sizes":[],"default_left":[0,0,0,0,0,0,0,0,0,0,0,0,0,0,0],"id":58,"left_children":[1,3,5,7,9,11,13,-1,-1,-1,-1,-1,-1,-1,-1],"loss_changes":[1.1580408E2,1.4855888E2,7.662537E1,4.1267242E1,1.2631027E2,6.003941E1,6.879431E1,0E0,0E0,0E0,0E0,0E0,0E0,0E0,0E0],"parents":[2147483647,0,0,1,1,2,2,3,3,4,4,5,5,6,6],"right_children":[2,4,6,8,10,12,14,-1,-1,-1,-1,-1,-1,-1,-1],"split_conditions":[7.405368E1,1.859986E-2,-9.512711E-1,-1.5227096E0,2.1177427E-1,9.019533E2,-1.7259178E-4,3.996013E-3,-4.9645985E-3,7.7120545E-3,-8.942708E-3,7.6776366E-3,7.599422E-4,2.4574953E-3,6.2173693E-3],"split_indices":[17,2,3,3,21,17,7,0,0,0,0,0,0,0,0],"split_type":[0,0,0,0,0,0,0,0,0,0,0,0,0,0,0],"sum_hessian":[5.4168154E3,7.50996E2,4.6658193E3,3.793056E2,3.7169034E2,7.621311E2,3.9036882E3,6.0455803E1,3.188498E2,3.1947137E2,5.2218967E1,1.5739754E2,6.047335E2,5.719642E2,3.331724E3],"tree_param":{"num_deleted":"0","num_feature":"52","num_nodes":"15","size_leaf_vector":"1"}},{"base_weights":[-4.010824E-1,-4.376529E-1,5.0582284E-1,9.7968847E-1,-4.5056853E-1,-3.20947E-1,1.1416445E0,-5.9662354E-3,1.6804002E-2,-5.1245145E-3,-1.7682755E-3,-5.4904954E-3,1.0025302E-2,1.4830042E-2,4.570579E-3],"categories":[],"categories_nodes":[],"categories_segments":[],"categories_sizes":[],"default_left":[0,0,0,0,0,0,0,0,0,0,0,0,0,0,0],"id":59,"left_children":[1,3,5,7,9,11,13,-1,-1,-1,-1,-1,-1,-1,-1],"loss_changes":[1.2803076E2,6.8260925E1,7.9131996E1,3.8303333E1,6.21131E1,2.0450249E1,1.9166801E1,0E0,0E0,0E0,0E0,0E0,0E0,0E0,0E0],"parents":[2147483647,0,0,1,1,2,2,3,3,4,4,5,5,6,6],"right_children":[2,4,6,8,10,12,14,-1,-1,-1,-1,-1,-1,-1,-1],"split_conditions":[2.579933E0,-2.1417708E0,2.7774101E-1,5.5888245E1,7.6177204E-1,1.2681698E8,9.7599775E-1,-5.9662354E-3,1.6804002E-2,-5.1245145E-3,-1.7682755E-3,-5.4904954E-3,1.0025302E-2,1.4830042E-2,4.570579E-3],"split_indices":[31,3,6,14,3,42,40,0,0,0,0,0,0,0,0],"split_type":[0,0,0,0,0,0,0,0,0,0,0,0,0,0,0],"sum_hessian":[3.8526304E3,3.7037944E3,1.4883614E2,3.27704E1,3.671024E3,6.491773E1,8.391841E1,1.0130195E1,2.2640207E1,2.9934424E3,6.775815E2,5.5873096E1,9.044636E0,5.521829E1,2.8700123E1],"tree_param":{"num_deleted":"0","num_feature":"52","num_nodes":"15","size_leaf_vector":"1"}},{"base_weights":[-2.3679286E-1,-1.1189635E-1,-5.0499547E-1,-2.0868783E-1,2.9972702E-1,6.82707E-1,-5.673177E-1,1.0690774E-3,-3.2766026E-3,-6.1264453E-3,4.854732E-3,-4.5386786E-3,1.1821521E-2,1.7182557E-2,-5.8209375E-3],"categories":[],"categories_nodes":[],"categories_segments":[],"categories_sizes":[],"default_left":[0,0,0,0,0,0,0,0,0,0,0,0,0,0,0],"id":60,"left_children":[1,3,5,7,9,11,13,-1,-1,-1,-1,-1,-1,-1,-1],"loss_changes":[1.3772838E2,1.119252E2,9.710202E1,8.540785E1,9.095244E1,3.777292E1,4.2944855E1,0E0,0E0,0E0,0E0,0E0,0E0,0E0,0E0],"parents":[2147483647,0,0,1,1,2,2,3,3,4,4,5,5,6,6],"right_children":[2,4,6,8,10,12,14,-1,-1,-1,-1,-1,-1,-1,-1],"split_conditions":[5.550923E3,7.2693796E0,-4.2613372E-2,7.517033E1,9.4282874E2,-1.07152045E-1,-6.2555856E-1,1.0690774E-3,-3.2766026E-3,-6.1264453E-3,4.854732E-3,-4.5386786E-3,1.1821521E-2,1.7182557E-2,-5.8209375E-3],"split_indices":[18,14,23,18,18,34,34,0,0,0,0,0,0,0,0],"split_type":[0,0,0,0,0,0,0,0,0,0,0,0,0,0,0],"sum_hessian":[4.11228E3,2.8066821E3,1.3055978E3,2.2727483E3,5.3393396E2,6.4596634E1,1.2410012E3,6.22242E2,1.6505062E3,8.992597E1,4.4400803E2,1.9747955E1,4.484868E1,7.2309303E0,1.2337703E3],"tree_param":{"num_deleted":"0","num_feature":"52","num_nodes":"15","size_leaf_vector":"1"}},{"base_weights":[4.5461783E-1,1.14251174E-1,5.237338E-1,-1.6006646E-1,5.3320223E-1,1.78917E-1,5.890983E-1,5.3973207E-3,-3.6341697E-3,7.7513545E-3,-8.870878E-3,8.8985544E-5,6.289733E-3,2.8890844E-3,6.4683207E-3],"categories":[],"categories_nodes":[],"categories_segments":[],"categories_sizes":[],"default_left":[0,0,0,0,0,0,0,0,0,0,0,0,0,0,0],"id":61,"left_children":[1,3,5,7,9,11,13,-1,-1,-1,-1,-1,-1,-1,-1],"loss_changes":[1.2696643E2,1.04976105E2,1.0104883E2,7.8793045E1,1.24859276E2,5.482883E1,6.5192505E1,0E0,0E0,0E0,0E0,0E0,0E0,0E0,0E0],"parents":[2147483647,0,0,1,1,2,2,3,3,4,4,5,5,6,6],"right_children":[2,4,6,8,10,12,14,-1,-1,-1,-1,-1,-1,-1,-1],"split_conditions":[7.6430305E1,1.859986E-2,-9.512711E-1,2.448055E-1,2.1177427E-1,1.6692396E-2,1.3165375E-2,5.3973207E-3,-3.6341697E-3,7.7513545E-3,-8.870878E-3,8.8985544E-5,6.289733E-3,2.8890844E-3,6.4683207E-3],"split_indices":[18,2,3,22,21,36,7,0,0,0,0,0,0,0,0],"split_type":[0,0,0,0,0,0,0,0,0,0,0,0,0,0,0],"sum_hessian":[5.3986846E3,9.116835E2,4.4870015E3,5.513153E2,3.6036816E2,7.156225E2,3.771379E3,1.2376015E2,4.2755515E2,3.0830542E2,5.206272E1,5.2014594E2,1.9547655E2,6.092998E2,3.162079E3],"tree_param":{"num_deleted":"0","num_feature":"52","num_nodes":"15","size_leaf_vector":"1"}},{"base_weights":[-4.038842E-1,-4.361221E-1,6.149139E-1,6.8356735E-1,-4.463118E-1,-1.2651698E-1,1.1708686E0,1.4784613E-2,-6.030322E-3,4.107285E-3,-4.6004322E-3,-3.038848E-3,1.1175811E-2,1.3246607E-2,2.4544322E-3],"categories":[],"categories_nodes":[],"categories_segments":[],"categories_sizes":[],"default_left":[0,0,0,0,0,0,0,0,0,0,0,0,0,0,0],"id":62,"left_children":[1,3,5,7,9,11,13,-1,-1,-1,-1,-1,-1,-1,-1],"loss_changes":[1.244433E2,4.2124573E1,4.8120377E1,3.510217E1,4.294281E1,1.1543501E1,9.154549E0,0E0,0E0,0E0,0E0,0E0,0E0,0E0,0E0],"parents":[2147483647,0,0,1,1,2,2,3,3,4,4,5,5,6,6],"right_children":[2,4,6,8,10,12,14,-1,-1,-1,-1,-1,-1,-1,-1],"split_conditions":[2.688849E0,-1.3284557E-1,2.5433716E-1,3.402702E-1,-3.1066592E2,8.935501E-2,1.0692161E0,1.4784613E-2,-6.030322E-3,4.107285E-3,-4.6004322E-3,-3.038848E-3,1.1175811E-2,1.3246607E-2,2.4544322E-3],"split_indices":[31,4,5,34,14,24,16,0,0,0,0,0,0,0,0],"split_type":[0,0,0,0,0,0,0,0,0,0,0,0,0,0,0],"sum_hessian":[3.7797651E3,3.6643848E3,1.1538042E2,3.245093E1,3.6319338E3,4.9773735E1,6.560668E1,1.996619E1,1.2484743E1,5.681706E1,3.5751167E3,4.4224503E1,5.5492325E0,5.5887577E1,9.719105E0],"tree_param":{"num_deleted":"0","num_feature":"52","num_nodes":"15","size_leaf_vector":"1"}},{"base_weights":[-2.3120959E-1,9.4840765E-2,-3.5816666E-1,-2.140567E-1,3.7542012E-1,5.596173E-2,-4.3835303E-1,-2.7531208E-3,9.818612E-3,5.347657E-3,-4.558162E-3,7.780513E-3,-2.063948E-3,-4.6460223E-4,-4.9975705E-3],"categories":[],"categories_nodes":[],"categories_segments":[],"categories_sizes":[],"default_left":[0,0,0,0,0,0,0,0,0,0,0,0,0,0,0],"id":63,"left_children":[1,3,5,7,9,11,13,-1,-1,-1,-1,-1,-1,-1,-1],"loss_changes":[1.6877568E2,9.916424E1,9.746213E1,4.017975E1,7.96415E1,9.050044E1,5.913382E1,0E0,0E0,0E0,0E0,0E0,0E0,0E0,0E0],"parents":[2147483647,0,0,1,1,2,2,3,3,4,4,5,5,6,6],"right_children":[2,4,6,8,10,12,14,-1,-1,-1,-1,-1,-1,-1,-1],"split_conditions":[-7.4271023E-1,-1.9750915E-1,2.771173E-2,1.0095303E0,2.744178E-1,6.675005E-2,7.5365685E1,-2.7531208E-3,9.818612E-3,5.347657E-3,-4.558162E-3,7.780513E-3,-2.063948E-3,-4.6460223E-4,-4.9975705E-3],"split_indices":[3,34,23,51,23,21,18,0,0,0,0,0,0,0,0],"split_type":[0,0,0,0,0,0,0,0,0,0,0,0,0,0,0],"sum_hessian":[4.0754382E3,1.1422281E3,2.93321E3,5.4379095E2,5.984372E2,4.758661E2,2.457344E3,5.1802716E2,2.5763767E1,5.0247153E2,9.5965675E1,1.2629527E2,3.4957083E2,3.331121E2,2.124232E3],"tree_param":{"num_deleted":"0","num_feature":"52","num_nodes":"15","size_leaf_vector":"1"}},{"base_weights":[4.5248732E-1,9.1220535E-2,5.1533043E-1,-3.4146917E-1,4.043996E-1,5.602666E-1,3.1177628E-1,4.3298416E-3,-5.0399536E-3,7.458108E-3,2.500722E-4,7.3209833E-3,4.911844E-3,6.559375E-4,6.5704263E-3],"categories":[],"categories_nodes":[],"categories_segments":[],"categories_sizes":[],"default_left":[0,0,0,0,0,0,0,0,0,0,0,0,0,0,0],"id":64,"left_children":[1,3,5,7,9,11,13,-1,-1,-1,-1,-1,-1,-1,-1],"loss_changes":[1.2351294E2,1.09582726E2,4.2228516E1,4.2971344E1,6.072905E1,4.4703125E1,7.140423E1,0E0,0E0,0E0,0E0,0E0,0E0,0E0,0E0],"parents":[2147483647,0,0,1,1,2,2,3,3,4,4,5,5,6,6],"right_children":[2,4,6,8,10,12,14,-1,-1,-1,-1,-1,-1,-1,-1],"split_conditions":[7.370331E1,-1.1962388E-1,4.4863397E-1,2.448055E-1,1.1781403E-1,8.6876794E2,2.0953846E7,4.3298416E-3,-5.0399536E-3,7.458108E-3,2.500722E-4,7.3209833E-3,4.911844E-3,6.559375E-4,6.5704263E-3],"split_indices":[19,51,51,22,47,19,42,0,0,0,0,0,0,0,0],"split_type":[0,0,0,0,0,0,0,0,0,0,0,0,0,0,0],"sum_hessian":[5.441419E3,8.066537E2,4.634765E3,3.386638E2,4.6798987E2,3.7951938E3,8.395712E2,5.8455154E1,2.8020865E2,2.4581644E2,2.2217342E2,1.0855219E3,2.709672E3,4.9080582E2,3.487654E2],"tree_param":{"num_deleted":"0","num_feature":"52","num_nodes":"15","size_leaf_vector":"1"}},{"base_weights":[-3.9991274E-1,-4.1934383E-1,1.2567046E0,1.612955E-2,-4.2882565E-1,1.4904014E-2,-7.5742684E-4,-5.006225E-3,-2.6186025E-3],"categories":[],"categories_nodes":[],"categories_segments":[],"categories_sizes":[],"default_left":[0,0,0,0,0,0,0,0,0],"id":65,"left_children":[1,3,5,-1,7,-1,-1,-1,-1],"loss_changes":[1.2196167E2,7.255786E1,1.380954E1,0E0,4.437805E1,0E0,0E0,0E0,0E0],"parents":[2147483647,0,0,1,1,2,2,4,4],"right_children":[2,4,6,-1,8,-1,-1,-1,-1],"split_conditions":[5.7798743E-1,2.6070969E1,2.4558721E-1,1.612955E-2,1.1075917E8,1.4904014E-2,-7.5742684E-4,-5.006225E-3,-2.6186025E-3],"split_indices":[6,19,34,0,42,0,0,0,0],"split_type":[0,0,0,0,0,0,0,0,0],"sum_hessian":[3.7714492E3,3.7284636E3,4.2985714E1,1.6529224E1,3.7119343E3,3.647062E1,6.5150976E0,2.5943416E3,1.1175928E3],"tree_param":{"num_deleted":"0","num_feature":"52","num_nodes":"9","size_leaf_vector":"1"}},{"base_weights":[-2.0344993E-1,1.7281635E-1,-3.27608E-1,2.8748E-1,-3.8474566E-1,7.709724E-2,-4.1092932E-1,7.124844E-3,3.4500525E-4,1.5234939E-2,-5.11609E-3,-2.5347173E-3,6.652556E-3,2.9822337E-4,-4.8419293E-3],"categories":[],"categories_nodes":[],"categories_segments":[],"categories_sizes":[],"default_left":[0,0,0,0,0,0,0,0,0,0,0,0,0,0,0],"id":66,"left_children":[1,3,5,7,9,11,13,-1,-1,-1,-1,-1,-1,-1,-1],"loss_changes":[1.9059117E2,6.48457E1,1.034516E2,9.033488E1,4.2694942E1,1.0213951E2,8.214676E1,0E0,0E0,0E0,0E0,0E0,0E0,0E0,0E0],"parents":[2147483647,0,0,1,1,2,2,3,3,4,4,5,5,6,6],"right_children":[2,4,6,8,10,12,14,-1,-1,-1,-1,-1,-1,-1,-1],"split_conditions":[-8.309842E-1,5.364678E3,3.496247E-2,9.164061E-3,-9.030306E-2,3.7022382E-2,7.5365685E1,7.124844E-3,3.4500525E-4,1.5234939E-2,-5.11609E-3,-2.5347173E-3,6.652556E-3,2.9822337E-4,-4.8419293E-3],"split_indices":[3,17,23,2,23,6,18,0,0,0,0,0,0,0,0],"split_type":[0,0,0,0,0,0,0,0,0,0,0,0,0,0,0],"sum_hessian":[4.0775288E3,1.0115603E3,3.0659685E3,8.3941705E2,1.7214326E2,5.23469E2,2.5424995E3,3.125381E2,5.2687897E2,1.0044723E1,1.6209854E2,3.3548294E2,1.8798604E2,3.6247202E2,2.1800273E3],"tree_param":{"num_deleted":"0","num_feature":"52","num_nodes":"15","size_leaf_vector":"1"}},{"base_weights":[4.4516617E-1,4.516518E-2,5.069632E-1,8.164218E-1,-1.7667095E-1,6.654324E-1,4.4001052E-1,-3.796539E-3,8.84313E-3,-4.3091173E-3,1.7965848E-3,4.0945713E-3,8.063882E-3,-4.433424E-3,5.0641126E-3],"categories":[],"categories_nodes":[],"categories_segments":[],"categories_sizes":[],"default_left":[0,0,0,0,0,0,0,0,0,0,0,0,0,0,0],"id":67,"left_children":[1,3,5,7,9,11,13,-1,-1,-1,-1,-1,-1,-1,-1],"loss_changes":[1.3471838E2,1.25133354E2,4.9801147E1,1.3601418E1,5.154999E1,5.0196472E1,1.9508112E2,0E0,0E0,0E0,0E0,0E0,0E0,0E0,0E0],"parents":[2147483647,0,0,1,1,2,2,3,3,4,4,5,5,6,6],"right_children":[2,4,6,8,10,12,14,-1,-1,-1,-1,-1,-1,-1,-1],"split_conditions":[7.405368E1,-3.938548E-1,9.186254E2,1.3404522E-2,1.6659051E-3,-2.5326833E-1,9.8213684E2,-3.796539E-3,8.84313E-3,-4.3091173E-3,1.7965848E-3,4.0945713E-3,8.063882E-3,-4.433424E-3,5.0641126E-3],"split_indices":[17,47,17,1,51,49,19,0,0,0,0,0,0,0,0],"split_type":[0,0,0,0,0,0,0,0,0,0,0,0,0,0,0],"sum_hessian":[5.449955E3,7.29535E2,4.7204204E3,1.6236414E2,5.671709E2,1.3993593E3,3.321061E3,8.474397E0,1.5388974E2,3.308794E2,2.3629149E2,4.9831873E2,9.010406E2,2.317907E2,3.0892703E3],"tree_param":{"num_deleted":"0","num_feature":"52","num_nodes":"15","size_leaf_vector":"1"}},{"base_weights":[-3.9607024E-1,-4.248998E-1,8.0061704E-1,-4.477724E-1,1.5762351E-1,-1.927152E-1,1.3219445E0,7.276622E-3,-4.5650047E-3,-5.98375E-4,1.9537834E-2,1.4277082E-2,-6.174137E-3,1.4602938E-2,1.8680266E-3],"categories":[],"categories_nodes":[],"categories_segments":[],"categories_sizes":[],"default_left":[0,0,0,0,0,0,0,0,0,0,0,0,0,0,0],"id":68,"left_children":[1,3,5,7,9,11,13,-1,-1,-1,-1,-1,-1,-1,-1],"loss_changes":[1.308758E2,4.930603E1,4.6527218E1,3.681366E1,5.493787E1,2.2647312E1,8.950081E0,0E0,0E0,0E0,0E0,0E0,0E0,0E0,0E0],"parents":[2147483647,0,0,1,1,2,2,3,3,4,4,5,5,6,6],"right_children":[2,4,6,8,10,12,14,-1,-1,-1,-1,-1,-1,-1,-1],"split_conditions":[2.8588033E-1,5.587826E2,1.0823253E-1,-1.3284557E-1,3.221078E-1,5.4278916E-1,2.154909E0,7.276622E-3,-4.5650047E-3,-5.98375E-4,1.9537834E-2,1.4277082E-2,-6.174137E-3,1.4602938E-2,1.8680266E-3],"split_indices":[5,22,4,4,6,15,48,0,0,0,0,0,0,0,0],"split_type":[0,0,0,0,0,0,0,0,0,0,0,0,0,0,0],"sum_hessian":[3.7826492E3,3.6942944E3,8.835474E1,3.554942E3,1.3935252E2,3.062758E1,5.772716E1,2.559519E1,3.5293467E3,1.25165436E2,1.4187088E1,5.86981E0,2.475777E1,5.1200485E1,6.526676E0],"tree_param":{"num_deleted":"0","num_feature":"52","num_nodes":"15","size_leaf_vector":"1"}},{"base_weights":[-2.1353714E-1,-8.261378E-2,-5.0090075E-1,2.0845266E-1,-2.968476E-1,1.5903465E-2,-5.350717E-1,-1.5673075E-3,5.8134454E-3,6.9829295E-3,-3.3808285E-3,9.102761E-4,-5.6665028E-3],"categories":[],"categories_nodes":[],"categories_segments":[],"categories_sizes":[],"default_left":[0,0,0,0,0,0,0,0,0,0,0,0,0],"id":69,"left_children":[1,3,5,7,9,-1,11,-1,-1,-1,-1,-1,-1],"loss_changes":[1.5290804E2,1.7429181E2,9.176608E1,1.6148624E2,6.6297714E1,0E0,2.4816193E1,0E0,0E0,0E0,0E0,0E0,0E0],"parents":[2147483647,0,0,1,1,2,2,3,3,4,4,6,6],"right_children":[2,4,6,8,10,-1,12,-1,-1,-1,-1,-1,-1],"split_conditions":[5.364678E3,1.6839648E-2,-9.030306E-2,5.3698365E-2,5.090216E-2,1.5903465E-2,-3.285537E-2,-1.5673075E-3,5.8134454E-3,6.9829295E-3,-3.3808285E-3,9.102761E-4,-5.6665028E-3],"split_indices":[17,36,7,6,21,0,7,0,0,0,0,0,0],"split_type":[0,0,0,0,0,0,0,0,0,0,0,0,0],"sum_hessian":[4.0643594E3,2.793104E3,1.2712556E3,1.1842129E3,1.608891E3,1.9706137E1,1.2515494E3,5.985833E2,5.8562964E2,6.3380413E1,1.5455105E3,6.000314E1,1.1915463E3],"tree_param":{"num_deleted":"0","num_feature":"52","num_nodes":"13","size_leaf_vector":"1"}},{"base_weights":[4.456345E-1,4.4510894E-2,5.0943154E-1,-3.6747003E-1,4.9175638E-1,4.5764738E-1,7.384141E-1,3.8102027E-3,-4.6996875E-3,6.4401054E-3,-5.9983097E-3,-3.77551E-3,4.784581E-3,-1.5566653E-3,7.750506E-3],"categories":[],"categories_nodes":[],"categories_segments":[],"categories_sizes":[],"default_left":[0,0,0,0,0,0,0,0,0,0,0,0,0,0,0],"id":70,"left_children":[1,3,5,7,9,11,13,-1,-1,-1,-1,-1,-1,-1,-1],"loss_changes":[1.3911292E2,1.378514E2,5.5284424E1,3.0060406E1,5.9998283E1,6.672046E1,2.8406738E1,0E0,0E0,0E0,0E0,0E0,0E0,0E0,0E0],"parents":[2147483647,0,0,1,1,2,2,3,3,4,4,5,5,6,6],"right_children":[2,4,6,8,10,12,14,-1,-1,-1,-1,-1,-1,-1,-1],"split_conditions":[7.405368E1,1.859986E-2,1.6902387E-2,2.448055E-1,1.4568381E0,-1.5370982E2,-1.9015025E0,3.8102027E-3,-4.6996875E-3,6.4401054E-3,-5.9983097E-3,-3.77551E-3,4.784581E-3,-1.5566653E-3,7.750506E-3],"split_indices":[17,2,2,22,48,15,9,0,0,0,0,0,0,0,0],"split_type":[0,0,0,0,0,0,0,0,0,0,0,0,0,0,0],"sum_hessian":[5.4360034E3,7.461682E2,4.689835E3,3.8848914E2,3.5767905E2,3.8272954E3,8.625397E2,4.6464905E1,3.4202423E2,3.1425668E2,4.342237E1,9.262983E1,3.7346655E3,3.38249E1,8.287148E2],"tree_param":{"num_deleted":"0","num_feature":"52","num_nodes":"15","size_leaf_vector":"1"}},{"base_weights":[-3.9750153E-1,-4.243819E-1,7.892339E-1,-4.5693785E-1,-4.2863092E-3,-1.8711516E-1,1.2924666E0,6.3487934E-3,-4.7316975E-3,1.7418379E-2,-1.7176816E-3,9.348307E-3,-4.913215E-3,1.4000026E-2,4.923349E-3],"categories":[],"categories_nodes":[],"categories_segments":[],"categories_sizes":[],"default_left":[0,0,0,0,0,0,0,0,0,0,0,0,0,0,0],"id":71,"left_children":[1,3,5,7,9,11,13,-1,-1,-1,-1,-1,-1,-1,-1],"loss_changes":[1.19552734E2,4.9987793E1,4.1084213E1,6.0418457E1,7.7474E1,1.0406992E1,4.0413513E0,0E0,0E0,0E0,0E0,0E0,0E0,0E0,0E0],"parents":[2147483647,0,0,1,1,2,2,3,3,4,4,5,5,6,6],"right_children":[2,4,6,8,10,12,14,-1,-1,-1,-1,-1,-1,-1,-1],"split_conditions":[2.8588033E-1,8.8139194E8,1.6148746E-1,-3.1066592E2,5.688025E3,1.6084976E-2,1.7751297E0,6.3487934E-3,-4.7316975E-3,1.7418379E-2,-1.7176816E-3,9.348307E-3,-4.913215E-3,1.4000026E-2,4.923349E-3],"split_indices":[5,42,21,14,18,2,49,0,0,0,0,0,0,0,0],"split_type":[0,0,0,0,0,0,0,0,0,0,0,0,0,0,0],"sum_hessian":[3.736249E3,3.654123E3,8.212602E1,3.391227E3,2.6289587E2,2.8146206E1,5.3979813E1,4.9120106E1,3.342107E3,2.2186348E1,2.4070952E2,5.561559E0,2.2584646E1,4.6923656E1,7.0561566E0],"tree_param":{"num_deleted":"0","num_feature":"52","num_nodes":"15","size_leaf_vector":"1"}},{"base_weights":[-2.1265666E-1,1.1407886E-1,-3.3928347E-1,-2.0771639E-1,4.0740678E-1,-2.6719156E-1,-6.406052E-1,4.4674735E-4,-5.041315E-3,7.463644E-3,1.1742521E-3,-5.229535E-4,-3.982351E-3,-4.1850596E-3,-6.4398176E-3],"categories":[],"categories_nodes":[],"categories_segments":[],"categories_sizes":[],"default_left":[0,0,0,0,0,0,0,0,0,0,0,0,0,0,0],"id":72,"left_children":[1,3,5,7,9,11,13,-1,-1,-1,-1,-1,-1,-1,-1],"loss_changes":[1.6917656E2,1.0793377E2,6.3835358E1,4.083352E1,5.8696808E1,6.698381E1,1.5653992E-1,0E0,0E0,0E0,0E0,0E0,0E0,0E0,0E0],"parents":[2147483647,0,0,1,1,2,2,3,3,4,4,5,5,6,6],"right_children":[2,4,6,8,10,12,14,-1,-1,-1,-1,-1,-1,-1,-1],"split_conditions":[-7.4271023E-1,-1.9750915E-1,3.8159903E2,9.482608E6,9.164061E-3,-3.1154042E-1,8.644167E-3,4.4674735E-4,-5.041315E-3,7.463644E-3,1.1742521E-3,-5.229535E-4,-3.982351E-3,-4.1850596E-3,-6.4398176E-3],"split_indices":[3,34,22,42,2,43,36,0,0,0,0,0,0,0,0],"split_type":[0,0,0,0,0,0,0,0,0,0,0,0,0,0,0],"sum_hessian":[4.0870762E3,1.1415723E3,2.945504E3,5.445099E2,5.9706244E2,2.378362E3,5.6714166E2,2.9455334E2,2.4995653E2,2.7455865E2,3.2250378E2,9.014645E2,1.4768977E3,1.0364114E1,5.567776E2],"tree_param":{"num_deleted":"0","num_feature":"52","num_nodes":"15","size_leaf_vector":"1"}},{"base_weights":[4.376961E-1,4.644803E-2,5.0041646E-1,7.9190916E-1,-1.6636068E-1,2.3254326E-1,5.566845E-1,-8.256214E-3,8.578125E-3,2.0175347E-4,-6.907893E-3,7.7273105E-3,1.0198652E-3,2.555817E-3,6.0897097E-3],"categories":[],"categories_nodes":[],"categories_segments":[],"categories_sizes":[],"default_left":[0,0,0,0,0,0,0,0,0,0,0,0,0,0,0],"id":73,"left_children":[1,3,5,7,9,11,13,-1,-1,-1,-1,-1,-1,-1,-1],"loss_changes":[1.3204443E2,1.1826603E2,6.9781006E1,1.8355553E1,5.6764076E1,5.682605E1,6.0179565E1,0E0,0E0,0E0,0E0,0E0,0E0,0E0,0E0],"parents":[2147483647,0,0,1,1,2,2,3,3,4,4,5,5,6,6],"right_children":[2,4,6,8,10,12,14,-1,-1,-1,-1,-1,-1,-1,-1],"split_conditions":[7.405368E1,-3.938548E-1,-9.512711E-1,5.439549E-1,7.816094E6,9.019533E2,-1.7259178E-4,-8.256214E-3,8.578125E-3,2.0175347E-4,-6.907893E-3,7.7273105E-3,1.0198652E-3,2.555817E-3,6.0897097E-3],"split_indices":[17,47,3,22,42,17,7,0,0,0,0,0,0,0,0],"split_type":[0,0,0,0,0,0,0,0,0,0,0,0,0,0,0],"sum_hessian":[5.3808975E3,7.436661E2,4.637231E3,1.6454605E2,5.7912006E2,8.058731E2,3.8313582E3,5.990385E0,1.5855566E2,4.2788538E2,1.5123466E2,1.5590137E2,6.4997174E2,5.677484E2,3.2636096E3],"tree_param":{"num_deleted":"0","num_feature":"52","num_nodes":"15","size_leaf_vector":"1"}},{"base_weights":[-3.9818946E-1,-4.2917466E-1,5.79922E-1,-4.865846E-1,-1.8349928E-1,-4.524225E-1,1.1086776E0,-4.965726E-3,1.1044698E-2,3.5786214E-3,-3.9560995E-3,-6.1902856E-3,1.0189787E-3,1.3306292E-2,-7.1712333E-4],"categories":[],"categories_nodes":[],"categories_segments":[],"categories_sizes":[],"default_left":[0,0,0,0,0,0,0,0,0,0,0,0,0,0,0],"id":74,"left_children":[1,3,5,7,9,11,13,-1,-1,-1,-1,-1,-1,-1,-1],"loss_changes":[1.1350873E2,5.1008972E1,6.3371254E1,4.7206543E1,7.912656E1,3.7314425E0,2.012577E1,0E0,0E0,0E0,0E0,0E0,0E0,0E0,0E0],"parents":[2147483647,0,0,1,1,2,2,3,3,4,4,5,5,6,6],"right_children":[2,4,6,8,10,12,14,-1,-1,-1,-1,-1,-1,-1,-1],"split_conditions":[2.688849E0,7.443218E-1,2.653061E-1,3.2544978E-2,-6.863345E-1,8.351244E-1,1.8811309E4,-4.965726E-3,1.1044698E-2,3.5786214E-3,-3.9560995E-3,-6.1902856E-3,1.0189787E-3,1.3306292E-2,-7.1712333E-4],"split_indices":[31,3,6,36,30,3,17,0,0,0,0,0,0,0,0],"split_type":[0,0,0,0,0,0,0,0,0,0,0,0,0,0,0],"sum_hessian":[3.7360876E3,3.6219119E3,1.14175865E2,2.9350603E3,6.8685156E2,3.8721066E1,7.5454796E1,2.9174336E3,1.762652E1,1.9316281E2,4.9368875E2,2.9682873E1,9.038193E0,6.340527E1,1.204953E1],"tree_param":{"num_deleted":"0","num_feature":"52","num_nodes":"15","size_leaf_vector":"1"}},{"base_weights":[-2.2059949E-1,-9.897097E-2,-4.82856E-1,1.9109713E-1,-3.0443358E-1,1.3461064E0,-5.3093886E-1,-1.67035E-3,5.6932387E-3,2.935034E-3,-3.7002095E-3,3.8485488E-4,1.6011318E-2,1.01325E-3,-5.57286E-3],"categories":[],"categories_nodes":[],"categories_segments":[],"categories_sizes":[],"default_left":[0,0,0,0,0,0,0,0,0,0,0,0,0,0,0],"id":75,"left_children":[1,3,5,7,9,11,13,-1,-1,-1,-1,-1,-1,-1,-1],"loss_changes":[1.3015123E2,1.6632275E2,1.1442218E2,1.5686235E2,6.416681E1,1.1077938E1,2.1055664E1,0E0,0E0,0E0,0E0,0E0,0E0,0E0,0E0],"parents":[2147483647,0,0,1,1,2,2,3,3,4,4,5,5,6,6],"right_children":[2,4,6,8,10,12,14,-1,-1,-1,-1,-1,-1,-1,-1],"split_conditions":[5.364678E3,1.6625682E-2,-7.9498574E-2,5.3698365E-2,6.2085226E-2,1.1868346E-2,-3.285537E-2,-1.67035E-3,5.6932387E-3,2.935034E-3,-3.7002095E-3,3.8485488E-4,1.6011318E-2,1.01325E-3,-5.57286E-3],"split_indices":[17,36,23,6,21,2,23,0,0,0,0,0,0,0,0],"split_type":[0,0,0,0,0,0,0,0,0,0,0,0,0,0,0],"sum_hessian":[4.0807466E3,2.788761E3,1.2919855E3,1.1563369E3,1.6324241E3,3.2404324E1,1.2595812E3,5.9423303E2,5.621039E2,1.6101672E2,1.4714073E3,5.476247E0,2.6928076E1,5.027452E1,1.2093066E3],"tree_param":{"num_deleted":"0","num_feature":"52","num_nodes":"15","size_leaf_vector":"1"}},{"base_weights":[4.36342E-1,7.091E-2,4.9376208E-1,-3.412539E-1,4.2410827E-1,6.5079814E-1,4.2495003E-1,-8.8794326E-4,-6.436149E-3,1.1895478E-3,7.905975E-3,7.160128E-3,-8.0307794E-4,-7.428913E-3,4.7355564E-3],"categories":[],"categories_nodes":[],"categories_segments":[],"categories_sizes":[],"default_left":[0,0,0,0,0,0,0,0,0,0,0,0,0,0,0],"id":76,"left_children":[1,3,5,7,9,11,13,-1,-1,-1,-1,-1,-1,-1,-1],"loss_changes":[1.1427246E2,1.0800293E2,5.0594482E1,2.6084747E1,4.457762E1,6.835596E1,1.863216E2,0E0,0E0,0E0,0E0,0E0,0E0,0E0,0E0],"parents":[2147483647,0,0,1,1,2,2,3,3,4,4,5,5,6,6],"right_children":[2,4,6,8,10,12,14,-1,-1,-1,-1,-1,-1,-1,-1],"split_conditions":[7.405368E1,1.6659051E-3,9.186254E2,7.816094E6,2.3721752E-1,3.0197954E-2,9.807925E2,-8.8794326E-4,-6.436149E-3,1.1895478E-3,7.905975E-3,7.160128E-3,-8.0307794E-4,-7.428913E-3,4.7355564E-3],"split_indices":[17,51,17,42,50,36,17,0,0,0,0,0,0,0,0],"split_type":[0,0,0,0,0,0,0,0,0,0,0,0,0,0,0],"sum_hessian":[5.4465894E3,7.399086E2,4.7066807E3,3.414676E2,3.98441E2,1.4314677E3,3.2752131E3,1.8679489E2,1.5467271E2,2.1813649E2,1.8030452E2,1.3142565E3,1.1721111E2,1.3029704E2,3.144916E3],"tree_param":{"num_deleted":"0","num_feature":"52","num_nodes":"15","size_leaf_vector":"1"}},{"base_weights":[-3.9342555E-1,-4.236196E-1,8.236717E-1,2.0995492E-1,-4.4267103E-1,-3.1405655E-1,1.1991006E0,-6.260661E-3,1.0601057E-2,-4.70514E-3,-6.601856E-4,-6.0578114E-3,5.516729E-3,1.3140808E-2,2.171346E-3],"categories":[],"categories_nodes":[],"categories_segments":[],"categories_sizes":[],"default_left":[0,0,0,0,0,0,0,0,0,0,0,0,0,0,0],"id":77,"left_children":[1,3,5,7,9,11,13,-1,-1,-1,-1,-1,-1,-1,-1],"loss_changes":[1.3644666E2,4.372107E1,3.8815052E1,7.613834E1,3.6770813E1,6.173286E0,7.3777695E0,0E0,0E0,0E0,0E0,0E0,0E0,0E0,0E0],"parents":[2147483647,0,0,1,1,2,2,3,3,4,4,5,5,6,6],"right_children":[2,4,6,8,10,12,14,-1,-1,-1,-1,-1,-1,-1,-1],"split_conditions":[2.8588033E-1,-2.0621045E0,7.241388E-1,9.872681E6,8.8139194E8,8.7131333E-1,1.7751297E0,-6.260661E-3,1.0601057E-2,-4.70514E-3,-6.601856E-4,-6.0578114E-3,5.516729E-3,1.3140808E-2,2.171346E-3],"split_indices":[5,9,48,42,42,41,49,0,0,0,0,0,0,0,0],"split_type":[0,0,0,0,0,0,0,0,0,0,0,0,0,0,0],"sum_hessian":[3.7024326E3,3.6134414E3,8.8991165E1,1.05191055E2,3.5082505E3,2.2120127E1,6.687104E1,5.3169163E1,5.2021893E1,3.2665322E3,2.4171829E2,1.676956E1,5.350568E0,5.9558952E1,7.3120875E0],"tree_param":{"num_deleted":"0","num_feature":"52","num_nodes":"15","size_leaf_vector":"1"}},{"base_weights":[-2.1602271E-1,-8.826404E-2,-4.9552312E-1,2.0926954E-1,-2.965148E-1,8.2976E-1,-5.625375E-1,-5.2440665E-3,3.9738715E-3,-3.5892974E-3,1.191631E-3,-6.259921E-3,1.2706773E-2,6.503855E-3,-5.780847E-3],"categories":[],"categories_nodes":[],"categories_segments":[],"categories_sizes":[],"default_left":[0,0,0,0,0,0,0,0,0,0,0,0,0,0,0],"id":78,"left_children":[1,3,5,7,9,11,13,-1,-1,-1,-1,-1,-1,-1,-1],"loss_changes":[1.4491553E2,1.7276389E2,1.13549255E2,1.5867998E2,4.2592834E1,4.0391582E1,2.3242188E1,0E0,0E0,0E0,0E0,0E0,0E0,0E0,0E0],"parents":[2147483647,0,0,1,1,2,2,3,3,4,4,5,5,6,6],"right_children":[2,4,6,8,10,12,14,-1,-1,-1,-1,-1,-1,-1,-1],"split_conditions":[5.550923E3,1.6625682E-2,-5.938304E-2,3.3186052E-3,1.2213451E1,2.9111417E2,-5.8854765E-1,-5.2440665E-3,3.9738715E-3,-3.5892974E-3,1.191631E-3,-6.259921E-3,1.2706773E-2,6.503855E-3,-5.780847E-3],"split_indices":[18,36,7,36,15,22,34,0,0,0,0,0,0,0,0],"split_type":[0,0,0,0,0,0,0,0,0,0,0,0,0,0,0],"sum_hessian":[4.0585046E3,2.78624E3,1.2722648E3,1.1471996E3,1.6390403E3,6.06891E1,1.2115757E3,2.3375314E2,9.134465E2,1.4251825E3,2.1385771E2,1.401077E1,4.667833E1,1.4816611E1,1.1967592E3],"tree_param":{"num_deleted":"0","num_feature":"52","num_nodes":"15","size_leaf_vector":"1"}},{"base_weights":[4.3242675E-1,3.0284464E-2,4.97685E-1,-4.0888548E-1,4.7822702E-1,2.3836716E-1,5.6096196E-1,2.5895152E-3,-5.2708597E-3,7.3002432E-3,-8.837346E-3,7.62335E-3,1.0251533E-3,3.1300576E-3,6.0616317E-3],"categories":[],"categories_nodes":[],"categories_segments":[],"categories_sizes":[],"default_left":[0,0,0,0,0,0,0,0,0,0,0,0,0,0,0],"id":79,"left_children":[1,3,5,7,9,11,13,-1,-1,-1,-1,-1,-1,-1,-1],"loss_changes":[1.41323E2,1.4833113E2,7.58999E1,3.0194004E1,1.2864546E2,6.474303E1,4.154944E1,0E0,0E0,0E0,0E0,0E0,0E0,0E0,0E0],"parents":[2147483647,0,0,1,1,2,2,3,3,4,4,5,5,6,6],"right_children":[2,4,6,8,10,12,14,-1,-1,-1,-1,-1,-1,-1,-1],"split_conditions":[7.405368E1,1.859986E-2,-8.4556735E-1,-1.5227096E0,2.1177427E-1,9.186254E2,1.3165375E-2,2.5895152E-3,-5.2708597E-3,7.3002432E-3,-8.837346E-3,7.62335E-3,1.0251533E-3,3.1300576E-3,6.0616317E-3],"split_indices":[17,2,3,3,21,17,23,0,0,0,0,0,0,0,0],"split_type":[0,0,0,0,0,0,0,0,0,0,0,0,0,0,0],"sum_hessian":[5.384722E3,7.520165E2,4.6327056E3,3.797706E2,3.7224588E2,9.0964014E2,3.7230654E3,5.6928986E1,3.228416E2,3.145554E2,5.7690517E1,1.8633846E2,7.233017E2,5.752728E2,3.1477925E3],"tree_param":{"num_deleted":"0","num_feature":"52","num_nodes":"15","size_leaf_vector":"1"}},{"base_weights":[-3.8815546E-1,-4.1750604E-1,7.7334857E-1,-4.4803917E-1,-1.2366277E-2,-2.3007594E-1,1.3464987E0,1.0365125E-2,-4.58767E-3,1.5987126E-2,-2.034607E-3,1.3877149E-2,-6.1730286E-3,1.4550262E-2,2.0561083E-3],"categories":[],"categories_nodes":[],"categories_segments":[],"categories_sizes":[],"default_left":[0,0,0,0,0,0,0,0,0,0,0,0,0,0,0],"id":80,"left_children":[1,3,5,7,9,11,13,-1,-1,-1,-1,-1,-1,-1,-1],"loss_changes":[1.27867676E2,4.514264E1,5.3543224E1,5.4527466E1,7.938995E1,2.2471796E1,7.0132217E0,0E0,0E0,0E0,0E0,0E0,0E0,0E0,0E0],"parents":[2147483647,0,0,1,1,2,2,3,3,4,4,5,5,6,6],"right_children":[2,4,6,8,10,12,14,-1,-1,-1,-1,-1,-1,-1,-1],"split_conditions":[2.8588033E-1,8.8139194E8,1.0823253E-1,-1.3284557E-1,5.7122607E3,2.84302E1,3.317365E-1,1.0365125E-2,-4.58767E-3,1.5987126E-2,-2.034607E-3,1.3877149E-2,-6.1730286E-3,1.4550262E-2,2.0561083E-3],"split_indices":[5,42,4,4,18,17,34,0,0,0,0,0,0,0,0],"split_type":[0,0,0,0,0,0,0,0,0,0,0,0,0,0,0],"sum_hessian":[3.7403223E3,3.6487607E3,9.1561714E1,3.3929473E3,2.5581339E2,3.3504078E1,5.8057636E1,2.3656523E1,3.3692908E3,2.6344248E1,2.2946913E2,5.9716153E0,2.7532461E1,5.2763165E1,5.2944713E0],"tree_param":{"num_deleted":"0","num_feature":"52","num_nodes":"15","size_leaf_vector":"1"}},{"base_weights":[-2.1332014E-1,1.2143767E-1,